let civ = [{"layers":[[{"weights":null,"value":132.96909134297312},{"weights":null,"value":57.43566616885187},{"weights":null,"value":43.540189652476094},{"weights":null,"value":38.82953120933654},{"weights":null,"value":206.89459069613574},{"weights":null,"value":104.43457935176122},{"weights":null,"value":56.208582682607414},{"weights":null,"value":147.29265640849198},{"weights":null,"value":38.68605075550304},{"weights":null,"value":63.12638841709243}],[{"weights":[-0.1734595404173258,0.262357076115177,-0.26562652955387867,-0.6442676019950682,-0.6582573989533098,-0.5715853712724428,-0.48091355050177054,-0.5632299750030811,-0.7956344041089647,0.792120405140269],"value":-0.9969900250293311},{"weights":[-0.9182305436279248,0.2939806680152426,0.9456511352802304,-0.5699802826821312,0.8476157509692426,-0.7833862893244747,0.5954039655083863,0.5559661543456986,0.4277664999203319,-0.29110546844507024],"value":0.9917974735706484},{"weights":[0.19500981694139208,0.5755589118946554,0.3142704902268969,-0.520237359243684,-0.791331634015692,-0.5953988841917752,0.04047266796437787,0.8598469131716309,-0.3786978380244075,-0.3870275169753663],"value":-0.9881782270517305},{"weights":[0.5780686811088303,0.30582216445571886,0.8182457745114333,-0.6109701410643389,0.5024254556953371,-0.4482794486884911,-0.3551335741248418,0.33118885610138626,0.5671875928218371,-0.9377214872339588],"value":0.9935911363304079},{"weights":[-0.6992577579141712,0.9669885283813318,0.9165380382094064,0.8150491479494995,-0.2688912743817635,0.18485668527966892,0.7573094766793766,0.19745491259138692,-0.239119745044984,-0.09445153568306441],"value":0.981892398614121},{"weights":[-0.4443525471034375,-0.3819268979881212,-0.2895404520017606,0.060759203667395845,0.567674895396963,-0.5634037325612202,0.24893602783660196,-0.14730101348627755,0.3175295240822691,0.5328745857866268],"value":0.8475529205814044},{"weights":[0.341410345523645,0.6511785358872983,0.6630384141637067,-0.20206847633657699,0.5275782211505216,0.6472781817406053,0.2541877495409315,0.6320261086410963,-0.21590993907679445,0.9110577703940472],"value":0.9977174745546424},{"weights":[-0.5237026994887279,0.056765391661307785,-0.17374758194762885,0.778331530420878,-0.7286256171105681,-0.8490097948233823,-0.15344825600881906,0.31227561174070484,-0.10954267312786925,-0.06597623084836934],"value":-0.9960809697824575},{"weights":[-0.08812655247740597,0.9583315789815545,-0.79489574923987,-0.17252217884749088,0.694945018134101,0.6280213310179508,0.46572320447058546,0.25909108932685676,-0.8108973479766419,-0.4935350475755782],"value":0.9953314071072872},{"weights":[0.9376896926015776,-0.1238515889849987,0.17440083477809587,-0.3386181119158236,0.8901648996775338,-0.7998827129853381,0.6831906429693406,-0.6973016482623171,-0.8904561998428346,0.688523278203399],"value":0.9936852628323924}],[{"weights":[0.8854966531057391,0.230149436756367,0.9651125889886916,0.23880886392441836,-0.6475102736556457,0.09664946777207284,-0.2091565686444694,0.9105351249792104,-0.6904967518796039,-0.86567097704211],"value":-0.8210447098979275},{"weights":[-0.9136824033918778,-0.9913918719108379,0.6208640983608515,0.5973029156098266,0.1963707452477057,-0.6581028713057542,-0.684383009998335,-0.41629522193493784,-0.2847048702021957,0.7152373294409524],"value":-0.2296737835526284}]]},{"layers":[[{"weights":null,"value":174.6412995374937},{"weights":null,"value":251.7806322022099},{"weights":null,"value":59.3530557248664},{"weights":null,"value":43.41472047493686},{"weights":null,"value":92.74441528874476},{"weights":null,"value":54.06414107594983},{"weights":null,"value":41.70173153336808},{"weights":null,"value":37.0928744795043},{"weights":null,"value":37.49672650288123},{"weights":null,"value":95.1868071353578}],[{"weights":[0.19781401131910847,-0.3109400021562174,0.8165884408208361,0.6188312764402748,0.35823071973104437,0.24661326174977605,0.1608535413298089,0.631726708131092,0.8054219813293693,-0.12727800715499038],"value":0.9921491039624597},{"weights":[0.0030117116975767466,-0.823125130073882,0.7087405440149168,-0.7201459558784715,-0.9946873246074968,0.4134589653130649,-0.9851966596637891,-0.08291679581618538,-0.3840772562494301,0.4726373029808597],"value":-0.9964335547484308},{"weights":[-0.9386310675637062,-0.0002990324724021498,0.3024565862507105,0.7880759813091167,-0.7970661264231969,-0.14168392030428167,-0.8480469218048752,0.09643028953569432,0.34104447487321377,0.13506334156172084],"value":-0.9950139738130366},{"weights":[-0.9123985303158095,-0.8184951420243016,0.3817958057176458,0.3584268186445958,0.842242470887272,0.9560007419802283,-0.5945419944231656,0.2957192476695125,0.3282275760984108,0.6906129938997023],"value":-0.9925474880685736},{"weights":[0.9482289657279033,0.5634073998234581,-0.4567452773501839,-0.5826826756892194,-0.059844485757737154,-0.4528775110753438,-0.48376191007603,-0.6231687081463315,-0.35152023900372287,0.8283401813619076],"value":0.9959740968904804},{"weights":[0.9326539769791635,0.8945858328661251,-0.8664593501338853,0.3411498742522192,0.3257041154934357,0.11221612643374401,-0.9329254185131406,0.8578702016022381,-0.9607398804605816,-0.652824457063574],"value":0.9964730202144092},{"weights":[-0.992425403039666,-0.4596146553402991,-0.8616456199421405,-0.7929603325949777,0.2452548931518166,-0.6163335545007267,0.4098406080539583,0.47797947400430996,-0.6065055774314958,0.9049674241317587],"value":-0.9965273415646868},{"weights":[-0.43882953526938495,-0.6049843965517581,-0.9620367423615299,-0.9274117358775595,0.05464805237663839,-0.9391587893559645,-0.12072397607224916,0.7225374385947148,0.13178163411215138,-0.42737912581058435],"value":-0.9974160450443214},{"weights":[-0.4898558623623388,0.38108723680739365,-0.9544816125675872,0.6002885045123616,0.20182140247526137,0.8168629981149356,-0.42288298111271816,0.35960461138111066,-0.8791825988446864,-0.04297617538067655],"value":0.572405521050451},{"weights":[0.8006848278086784,-0.6394706497429214,-0.08830005217184445,0.25452684798527114,0.6693046107445282,-0.9150594474013243,-0.537861849808301,0.09848302359405237,0.18042901218119356,0.16151274664715842],"value":0.37524915732430947}],[{"weights":[-0.9860179401072653,-0.18495774529085462,-0.27420110488433735,-0.2870041281316986,0.14087857834880912,0.23647578718214168,0.9316921188044551,-0.25676746093285585,0.7782037965950388,0.543264978768923],"value":0.10444723710690405},{"weights":[0.2674552241167065,0.3877995838605788,-0.6115172845969203,-0.3459227498309172,-0.7562092568633507,-0.06081695414005939,-0.8027716891470513,0.3978218621414795,-0.40919426056363273,-0.49698836255075607],"value":-0.0005445353388521077}]]},{"layers":[[{"weights":null,"value":219.2207298848877},{"weights":null,"value":94.76864379271926},{"weights":null,"value":51.42346827832354},{"weights":null,"value":40.71593773320309},{"weights":null,"value":120.21483572889765},{"weights":null,"value":63.1664611227382},{"weights":null,"value":44.699951569966984},{"weights":null,"value":37.62111026047714},{"weights":null,"value":37.08787730620556},{"weights":null,"value":94.28829496964534}],[{"weights":[0.2845284189907318,0.9275772745728847,-0.8656188809437615,-0.5518215011537841,-0.19334499614018918,0.90288464496563,0.22058058615390763,0.20348595607221842,0.40157144268820355,-0.5228926944667451],"value":0.9901179799381884},{"weights":[-0.9251791165276093,-0.7621328430829353,-0.6628195673351227,-0.2617937520580491,0.6033667851518967,-0.573474491136047,0.7169912163130849,0.9468312453811865,-0.40806855894373983,0.016874358862053462],"value":-0.9956588204140271},{"weights":[-0.2645686643140652,-0.17571599266329674,0.3677371970357899,-0.7539658900994861,-0.7344413832124195,-0.48873126511706566,0.3130242308745621,0.6130304700630194,0.2633523417873862,-0.02324555556626029],"value":-0.9938260603299983},{"weights":[0.2649673198823317,-0.9755978882756549,0.9615584256894256,0.675379319558195,0.1556112156742282,0.4160108423318456,-0.4599796796257025,-0.6657429086912634,-0.004330857985498149,-0.42689392261181913],"value":0.6065381170111676},{"weights":[-0.5630869848927902,-0.6191052659765726,0.6148931473480639,0.009635328599827186,0.7094606359054243,-0.2775170732698191,-0.49192576879758754,-0.24197185369166885,0.03101888668604369,0.42253406803712723],"value":-0.9863841468794332},{"weights":[0.4999460075771953,0.5386497500362419,-0.6052412301831445,0.8496248970839706,-0.7315871751752603,-0.7791294569281693,-0.14644153452832231,0.2592129261820446,-0.3250721450570522,0.4884551258733678],"value":0.9846527227172043},{"weights":[-0.8301677728422874,0.8881557831482247,-0.43292506362374006,0.538550732503063,0.9029315709261612,-0.16715565519269804,0.5316267879896142,-0.4656586843052444,0.41051416554150144,0.33709892237867667],"value":0.9815110089653369},{"weights":[-0.8375515831625195,0.4710724387599514,0.25247932303472576,-0.09088959521408135,-0.7839713546773446,-0.40006968081486693,-0.11300417138624841,0.02022403463066924,0.6490090191851556,0.43663380146512054],"value":-0.9947159742705886},{"weights":[-0.9036625841186345,-0.12326793785983181,-0.07434462560980437,0.3310374432341785,-0.4814058260320411,0.7010503276335958,-0.3568003684872698,0.5392027636281189,-0.2479510390415176,0.05249289050697614],"value":-0.9953407623016326},{"weights":[-0.5482583351770631,-0.8525632194147321,-0.8946134686092768,-0.5210649641820382,0.6055860497990562,0.1448408088334241,0.6042848996036372,-0.9504076600634828,-0.5970492432107637,-0.7683133702481091],"value":-0.9965586809659122}],[{"weights":[-0.18731158394734582,0.21558640731990097,-0.6100769616059663,-0.9023381108970607,0.3890756486433329,-0.8801346550646127,0.5571557225566117,0.1702042499618286,0.1339160834818447,-0.5884115246462183],"value":-0.43209700975423226},{"weights":[0.9046676962414537,-0.014571017352378313,0.05869723337510102,-0.8300943559774185,0.5494359325955496,0.7147352775228715,-0.48693362202995694,0.8931082268292272,-0.785427890215161,-0.06770674313497338],"value":-0.006803045141620576}]]},{"layers":[[{"weights":null,"value":65.6458368695868},{"weights":null,"value":124.4036065232157},{"weights":null,"value":219.40794870840367},{"weights":null,"value":85.04077843592444},{"weights":null,"value":44.28514651870294},{"weights":null,"value":36.75792609780524},{"weights":null,"value":35.02900262505616},{"weights":null,"value":45.06308528121572},{"weights":null,"value":41.37496887337643},{"weights":null,"value":143.41055507287447}],[{"weights":[0.9896933898275271,0.3908618055161521,0.721163884644636,0.8682869686050942,0.9631728605680823,-0.4404410534095544,0.4134535866134761,-0.033156982905578225,-0.6276738936811443,-0.1333503178042208],"value":0.9970676394891458},{"weights":[0.4732227305237151,0.34908187279575564,0.5862338200295838,-0.4318437137466029,-0.1696429457749682,-0.9384896408883971,-0.6728946526706943,-0.781330773620402,0.7275881609031978,-0.3342917972138397],"value":0.9794937189331703},{"weights":[-0.9233866912753985,-0.12636871341757372,0.5036484360859848,0.02343777999701846,-0.7019161234486226,-0.5682543344856135,-0.7025584658023658,0.012498036755925757,0.6083684957859314,-0.9168209369410163],"value":-0.9932050991425281},{"weights":[0.256425000408671,0.11547854984839168,0.9714898637151923,0.10853505084206994,0.8989638115043821,0.07917212400648044,0.3438911039550585,0.512326694752697,0.7712139032096488,-0.43419899485542635],"value":0.9966895753428011},{"weights":[0.3004043220170538,0.6161036796530603,0.27472920298802217,-0.010188084778958384,0.8625951297056105,-0.6385744227124319,0.8051517374329262,0.959315347975402,-0.9898798199774492,0.12027489104391176],"value":0.9954385903724873},{"weights":[0.011825576124294468,-0.63074990953743,0.28105045596463407,-0.9041959038225804,0.0765962958958899,-0.9612010703650546,0.8662742114133986,0.8688921976241626,0.2589632579492238,0.3089599400762171],"value":-0.25226090291579745},{"weights":[0.9787301979133374,0.8833948782403263,0.7392375048193722,-0.44125107496528404,0.6471389185363909,0.6023307668838407,-0.762366293323427,-0.8024120831650721,-0.1067181923743461,-0.37041014847701215],"value":0.995656255354433},{"weights":[0.2908123805834588,0.4487910986598407,-0.1322511552325314,0.301089868800541,-0.4317311037845304,-0.23550377793296295,0.1577042912021196,0.05057870182466706,0.39732447318041597,-0.8592471716440064],"value":-0.9822217354631455},{"weights":[0.6511531952095808,-0.9654820512815587,-0.25521861724158335,-0.26211261255640617,0.9308626558682596,0.1003637663578334,-0.9759179419666775,0.07521749141362921,0.4322307686333029,0.9432599007243234],"value":0.9207758073753542},{"weights":[0.904714282727145,0.03442610716238059,0.3551718842491045,0.3740176025368811,-0.23357215458320013,-0.166811548755327,0.4838074942336821,0.9365971392637378,-0.10579938397128252,-0.48602085899228475],"value":0.993007364664598}],[{"weights":[-0.4774631398127154,0.42195384685683024,-0.461408212722735,0.28055723114522024,-0.2205754473197401,-0.9209023023036567,-0.36222118840134954,-0.30148434374961885,0.46705071908262674,0.948997046654457],"value":0.6661954047525535},{"weights":[0.6153987762142941,0.28765453716951406,0.9634171885183238,-0.9488917952038878,-0.9046001565383421,0.0833584071069855,0.25313500220198293,0.1074389582986055,-0.823765699602582,-0.17503334317513763],"value":-0.730790541343263}]]},{"layers":[[{"weights":null,"value":79.23848463529616},{"weights":null,"value":149.56449517094762},{"weights":null,"value":237.07623897175128},{"weights":null,"value":65.81938914044147},{"weights":null,"value":49.89598338125512},{"weights":null,"value":39.926642823478424},{"weights":null,"value":36.996939936963344},{"weights":null,"value":41.40742454704513},{"weights":null,"value":41.79821208035118},{"weights":null,"value":128.44075127317925}],[{"weights":[-0.4341175039564802,-0.6003057780929844,-0.10889433950060923,-0.2679838868044371,-0.17078560067305082,-0.3039750023516814,-0.059471775458273424,0.784274962166196,0.3092744806005925,-0.5160864610022537],"value":-0.9952914839062187},{"weights":[0.5606661715029744,0.13295851202471054,-0.47587035054441174,-0.754349278855607,-0.6236757223500811,0.8192815254596924,0.6597857591946625,0.08241837297593113,-0.0031363653019069737,0.0516465786266358],"value":-0.9841868947641637},{"weights":[-0.8605950094166444,0.7301974987605035,0.6974797452875667,0.4227043857507615,-0.7240900285065335,0.14056325398123226,-0.8843265209479143,-0.47945431100772407,0.23872490495684318,0.09984143162819992],"value":0.9942828416321241},{"weights":[-0.6614808504327465,0.5412832227142106,0.3516548305021421,0.8518673230502607,-0.5003453493174379,0.948850672280213,-0.48253523862711,-0.04514580828507908,0.7288501014046651,0.5562940540500421],"value":0.996213460274756},{"weights":[0.8119254089668853,0.058227218376062595,-0.14263986317705601,-0.9379050906398456,0.6409243869374217,-0.25783358978396453,-0.4836416701482227,-0.012117532468776115,0.923015544480803,-0.377637915318775],"value":-0.96681928870769},{"weights":[0.8181873124224297,0.4977882137901397,0.11577912593259798,-0.02521245401451422,0.4662392826059638,-0.1258695940066623,0.7359271147163029,-0.08494621054890583,0.6162582393280722,-0.04658514095051114],"value":0.9956100880909817},{"weights":[-0.23705605673404007,-0.44809881129951146,-0.4153334071347907,-0.43041842747011927,0.6919552932364881,-0.8210445581290426,-0.06405145516076605,0.6007091233080311,0.3192668146976083,-0.35946841000453666],"value":-0.9954990731041679},{"weights":[0.6217473062728605,0.12687976487550312,0.7190196390197015,0.5858076874240559,0.4717625776023473,0.36198922321128935,0.5763506553586861,0.6538032779920195,-0.07687105586565224,-0.11427501882291224],"value":0.9971161606088474},{"weights":[0.4809963059640783,-0.713301680528172,-0.6082943277400061,-0.70747895177667,-0.3880421286209508,0.48549361993134665,0.16106734138758938,-0.2640811311575968,0.1591790606647101,0.4498685486333276],"value":-0.9950216020330245},{"weights":[0.633338448459162,-0.9754134606268434,-0.44983826170472563,0.35321710302378895,-0.332941116532794,-0.07193432876829986,0.13868586943341343,0.767045264264536,-0.729195519090382,0.33808765910052596],"value":-0.9933220657522464}],[{"weights":[0.06568765782862807,0.37190593472241273,0.7836584483595925,-0.15689083910793,-0.436788849813162,0.5784778389782437,0.9875594344516059,0.3924950420570519,-0.32862136352006033,0.6217880624036605],"value":0.23507079706769501},{"weights":[-0.8748475215477574,-0.588007469492434,-0.5081994288645344,0.8237929076329782,0.49308238235381685,-0.11142583952553409,0.8600018329068968,-0.9106620356637225,0.12036452635787498,0.24311568876646428],"value":-0.48672291959037484}]]},{"layers":[[{"weights":null,"value":145.73485532272196},{"weights":null,"value":231.13877341258873},{"weights":null,"value":65.9809163903162},{"weights":null,"value":46.33906480365855},{"weights":null,"value":78.80299064309929},{"weights":null,"value":49.11111209622707},{"weights":null,"value":39.095867722149706},{"weights":null,"value":38.20028683463121},{"weights":null,"value":36.334851938585324},{"weights":null,"value":106.4415295160376}],[{"weights":[-0.20562423221278348,0.9441018126975904,-0.21550226853134413,-0.7375217106507139,0.6200734476305372,-0.4121569041437221,0.2818675343464494,0.41356595956858655,-0.9553663532242278,-0.8435686478747262],"value":0.9860711302039954},{"weights":[0.40517369139634196,0.9232765007362418,0.16328354281376534,-0.9133221117521293,-0.10059477679258588,0.9725416266433649,0.21690673295064844,0.027131293691549985,0.4152726359797523,0.6006245564202342],"value":0.9972993141285119},{"weights":[-0.5485035776637948,0.47386843855252136,0.6902414236266763,0.3821281977863831,0.6718551491473206,0.44524189636046874,0.05173728951768508,-0.8958489417920945,-0.6568630634567816,0.7948862938282835],"value":0.9949289274796882},{"weights":[0.48226605722355753,-0.4669475292355765,-0.8512768945335574,0.1741802110115307,-0.942255137347277,-0.17396617626730126,-0.5176078496719025,0.2914452415799178,-0.3260040742310575,-0.7988698680794042],"value":-0.9963705107266705},{"weights":[0.2522072640264583,0.8335357487954194,-0.14165254761089674,0.7952590907383339,0.9922841704327299,0.8869232938690264,0.3390187377859921,0.6149968098411436,-0.14216851436642264,-0.7287825329611395],"value":0.9970031585543478},{"weights":[-0.31581518714181467,-0.012108315396835323,-0.8913290165052032,0.5702690439264995,0.9991317344450286,-0.1836258476688779,-0.5482013986557455,-0.26412890888120266,-0.5539821694160296,-0.26582521677719795],"value":-0.9891819809950085},{"weights":[0.2380642840534697,-0.5450186787743183,0.43704010891286815,0.6760574237176749,-0.24029374096477207,0.07223301989766684,-0.28624088749027665,-0.9808304756048813,-0.5128065576276613,-0.951018517438925],"value":-0.9953708930319387},{"weights":[-0.671209795354847,-0.2868782364846738,0.6913770820735454,-0.7486687571971613,0.8492961124332523,-0.3007918392472364,-0.937896800952351,-0.2454997914682986,0.488404238501019,-0.9548193150018562],"value":-0.9956892797530428},{"weights":[-0.17761547143875456,-0.10726854316206413,-0.5975160221479627,0.7486979049460234,0.6751041954573083,0.8921914059313041,-0.6374618911751284,0.7760384669586773,-0.1861732852648359,-0.13415720529915598],"value":0.9619564325061014},{"weights":[0.4227899768354533,0.9148245284686811,-0.655328408716509,-0.5315032275936207,0.3673860364908075,-0.5899029666926534,0.026119016282303953,0.1822407548102163,0.8261380174467043,-0.4643656663725366],"value":0.9948652396840487}],[{"weights":[0.7283986658338488,0.9267271600445302,0.7420327564183853,-0.9176473292225262,0.04353626247972198,0.8372286299203537,0.9789167828485597,0.10052886113865345,0.8023914314398981,-0.654427939729834],"value":0.6088578633274531},{"weights":[-0.7600398471401881,0.8846632872593414,0.6909688040413431,-0.761123605193986,0.9156346803712987,0.885312820732449,-0.40418045955549387,0.6579497839768877,-0.7437093921687503,-0.750998754844943],"value":-0.09054596078695795}]]},{"layers":[[{"weights":null,"value":145.90190984012685},{"weights":null,"value":241.23733492111973},{"weights":null,"value":69.49206800362373},{"weights":null,"value":46.21341937124319},{"weights":null,"value":74.88855118851309},{"weights":null,"value":49.797734590642484},{"weights":null,"value":41.00511686120575},{"weights":null,"value":36.45816205366898},{"weights":null,"value":39.58079998810905},{"weights":null,"value":92.39544312160476}],[{"weights":[-0.19709078051980677,0.5079466627163143,-0.8253894582442252,0.5969846501987424,0.39207992714222906,0.8340050173237721,0.7948467110496265,0.9931416366102921,-0.5358326120365051,-0.08797915205674744],"value":0.9942976944242159},{"weights":[0.43850731100942,0.08430892819473534,-0.6785480717119867,0.047612940861811115,-0.490761058333844,-0.9767005985575912,-0.003875914651477075,-0.5401343631989186,0.017104096173338856,0.05980712109534858],"value":-0.9835184860210668},{"weights":[0.1943906820033039,-0.24377501052373107,0.2552491058824766,0.7701966489223522,-0.6195429273945448,-0.5273115796500147,-0.7641398738944529,-0.21595733713837495,-0.46128839382586806,-0.2624493848739422],"value":-0.9924519409845586},{"weights":[0.8554379864453692,-0.4184494080015311,-0.5859719329153186,-0.35010619682214283,-0.8751703722691913,-0.9373530551632103,-0.3155574049836627,-0.1814226588756509,0.6219467974991715,-0.37207246663669524],"value":-0.9943042123618336},{"weights":[-0.5579486719163542,0.7781132565134761,-0.563763397880845,-0.1640849721715143,0.984907302279757,0.42245582024566186,-0.8543850531500596,0.003888641308391172,-0.22778917844911017,0.49384483473338525],"value":0.993633020737797},{"weights":[-0.12320120832332515,0.9537385004541941,-0.3930981685394448,-0.30373455710085384,-0.6684512507564708,-0.934683446585113,0.9937145385133892,0.9451313163887227,0.2685562722912094,-0.2639996961827049],"value":0.9926786159321623},{"weights":[-0.9511370714023637,-0.9564980586102725,0.9164347561231989,-0.18489537337924578,0.7025325940493694,-0.4779422400338449,-0.25790887534541573,-0.9907443253274222,-0.4008385954552911,-0.956203632038064],"value":-0.9977141546911394},{"weights":[0.9207004876367839,-0.954715261668666,-0.12269031968856448,0.353424035698616,-0.783108764603957,0.7417031303614801,-0.4914447030350435,0.531545247771938,-0.5292020502287977,-0.7100251043769061],"value":-0.9949547626659446},{"weights":[0.2806884597063557,0.22471406515730985,0.6590733336721986,0.8871771628648291,0.00906554328178144,-0.29762764903210703,0.7124626673751124,0.3991276500543912,0.04390537683065787,-0.7912599628333421],"value":0.9929186021574737},{"weights":[-0.23213291412516268,-0.0067191050715993406,0.0987805293934012,0.335503661505562,0.6071960739121387,-0.48420211179187733,0.14767554155873208,0.1823909950703162,0.6252667510093755,-0.20800635014886426],"value":0.9636024527568424}],[{"weights":[-0.8112984473711422,-0.38171858862657126,0.21981782759509683,0.9266703479094942,-0.19843696416335455,-0.7781277779623208,-0.4998335289034226,0.03836198946417779,0.41189943284921693,-0.7372085880954922],"value":-0.7042532165714726},{"weights":[-0.8312321896651547,-0.744981984966258,0.5426361414547833,-0.2863124026513275,-0.9951566171876234,0.980167067328138,-0.5793879551409424,0.37880002787415545,0.4172599769758274,-0.34181491921787366],"value":-0.07181443798771099}]]},{"layers":[[{"weights":null,"value":146.2634034527272},{"weights":null,"value":235.2569179428642},{"weights":null,"value":66.97903956099742},{"weights":null,"value":46.197214558489534},{"weights":null,"value":77.45246078940687},{"weights":null,"value":49.44321898812874},{"weights":null,"value":39.84089926434839},{"weights":null,"value":37.51444055560279},{"weights":null,"value":37.52286692529242},{"weights":null,"value":101.044611246132}],[{"weights":[-0.45570072067392875,0.7084476456314039,-0.9556427945763013,0.4995363661572565,-0.4582748422005376,0.7739200830996578,-0.37214661573757457,0.05916195060274321,0.9602854672308481,-0.6923300380814226],"value":0.938739848844771},{"weights":[-0.6650436005268179,-0.3456980302060062,-0.23740861517092116,-0.12199991732306303,-0.11828032030123037,-0.01564944046076322,0.08746111958648894,0.45640761837859367,0.27641476898830586,-0.10302056758456857],"value":-0.9947507417001459},{"weights":[0.6167092614397665,0.3742268269655953,-0.2520019424531377,0.24167071163408194,-0.9474349544201797,0.266212279231937,-0.52636942992486,-0.6928327736755269,0.16017307276406267,-0.3983652602627168],"value":0.9688508057520911},{"weights":[-0.396953682698451,0.21865830178861012,-0.5354364430300946,-0.7910633737189925,-0.9420725939470986,-0.7830755654125903,-0.6442515392295656,0.18612471374194683,-0.41514207373609535,-0.6436243200890628],"value":-0.9965636655785257},{"weights":[0.4666416318939648,0.8415693022529864,0.2892887490057001,0.18576213109477369,-0.22798340016359875,-0.6944487522913203,0.5765813700871396,-0.7594227938883193,-0.5086786952828297,0.48641243429467895],"value":0.9962651222875573},{"weights":[-0.6978777292717973,-0.3421295165447935,0.8891555101764728,-0.3749063108352333,0.6023624956967346,-0.5437506069464355,-0.9290752425726532,0.8604240094433733,0.05251631285854508,-0.6528550936288924],"value":-0.9947448981689421},{"weights":[0.60398612133889,0.38026864970925445,0.012339111852771811,0.04770653614765097,0.45551007776987307,-0.5552408651243455,0.7493010436105658,-0.2452412772714463,0.13820390287586237,0.8460016524294054],"value":0.9966775443950016},{"weights":[-0.04705118759229299,-0.28899936499633716,-0.34758652608999663,0.5201041196218159,0.47415213066326434,0.7570871401540811,-0.5712949237536176,0.3585666379153172,-0.5997591838201011,-0.12792922417120955],"value":-0.9781221170266712},{"weights":[-0.11935277643273823,-0.4961923664458743,0.3286017428993038,0.5537167010593116,-0.8390725921240425,0.660356766542685,-0.2664862591902595,-0.02247000813573452,0.5919320389804366,-0.23250631531574895],"value":-0.9924631048072449},{"weights":[0.9914613580957363,-0.25737434266519,-0.7005258726891732,-0.4374260442814335,-0.4224056827591185,0.41109738888476954,0.2930421428769523,-0.11001816302329726,-0.8495445780754554,0.1898553323915153],"value":-0.1660241873392301}],[{"weights":[-0.15525939391588306,0.22860012314013645,-0.3127566216667397,0.6696710875366834,0.8726233075794982,0.10163896440387088,0.5870141178162611,0.5734683417487645,-0.37563507474579083,-0.9987302956669475],"value":-0.012359643962644358},{"weights":[-0.7305835655472399,0.2752834571649023,-0.05690360631205316,0.36688195680673275,0.7099342463692158,0.9426018116566266,-0.3442491427132257,-0.9992893530303903,-0.7341896425974901,-0.739360090992979],"value":-0.11115445377738542}]]},{"layers":[[{"weights":null,"value":59.946784902967316},{"weights":null,"value":115.23765049392192},{"weights":null,"value":215.02669046757956},{"weights":null,"value":115.89265185401369},{"weights":null,"value":44.10498581652498},{"weights":null,"value":38.56512128992692},{"weights":null,"value":38.37357759351731},{"weights":null,"value":45.81172105017458},{"weights":null,"value":47.021486828109445},{"weights":null,"value":131.07017737347294}],[{"weights":[0.5196089165701601,-0.7968280372448695,-0.8881309415925274,-0.7506692300297519,-0.22003854584765037,-0.8880344755779097,0.08383414822311908,-0.09566403256410805,-0.6195271520064543,-0.7453114055840468],"value":-0.9980452763630344},{"weights":[0.4209658259379978,-0.3482580724244917,0.1398998418817068,-0.17572077082193527,-0.2700503719705858,0.02575629171370597,0.7544386970843591,0.878421205716732,0.4902838898160309,-0.1989118678186892],"value":0.9804221950310792},{"weights":[-0.7243838356348711,-0.8702618281020325,-0.9870779044164406,-0.4751655291115222,-0.2968024979021262,-0.5871228743689829,0.6649460157188467,-0.40311368029713,0.489994086100904,-0.13618550048014688],"value":-0.9977039005990792},{"weights":[-0.6588516277131684,-0.06397838615370377,0.12234183010142052,-0.789255169574175,0.20935870671116863,0.22324064062033022,0.3165520866010416,0.13852230242949348,-0.17541329497254265,0.7725533356360157],"value":0.9454025795210182},{"weights":[-0.49178521607251025,0.921562275018811,-0.6715062568377834,0.07425602383049723,-0.1586640400433641,0.7893719740515079,-0.8096641088835126,0.5436299375837446,0.22840982764911688,0.2370228236533909],"value":0.01743729185352874},{"weights":[0.2765533030481584,-0.33994974820139623,-0.04414664463725071,-0.1546351294342081,-0.7271451461076759,-0.1195248976171408,-0.8389226731322927,0.09291885773460562,-0.5614174237931095,-0.2705230874976703],"value":-0.9943656388924794},{"weights":[-0.39597865177838676,0.29302733163807115,0.9639136974603182,0.4595098236512425,0.544816855385279,-0.5367073378268432,-0.1331575959723379,-0.8012165308171584,-0.5358666657209756,0.7568368343384364],"value":0.9967434000187093},{"weights":[0.8541706119345425,0.73727198310227,0.5306777813484245,0.6094350402205895,-0.8187935102140402,-0.9595940447312516,-0.39122834806789486,0.07574194804310164,0.18717988175995348,0.7091099661792222],"value":0.9970500356651179},{"weights":[-0.3996257764204998,-0.7392633638716011,-0.29446095992924226,-0.0797033171520738,-0.9716963357197708,0.2758404809200492,-0.05472830665826223,-0.4999216537001856,-0.8861669987156731,-0.5114826112144479],"value":-0.9971316416838735},{"weights":[0.38598001138046145,-0.4030261602835634,0.8135316569236042,-0.5842474536061877,0.1011668014317757,-0.37568427046916986,-0.06905896570274139,0.6177463455344858,-0.0829208368892127,0.22055224170533583],"value":0.992034912630229}],[{"weights":[-0.9081104075497337,-0.7759820117323191,0.5321330609274746,0.6596037440420361,-0.6172780134738547,-0.27989966353697016,0.7817012154256511,-0.8328464801601987,0.4290166567151976,0.38244010832863884],"value":0.28884230653406834},{"weights":[-0.8563847351171088,-0.17459373622647245,0.18367336343254115,-0.041473980451109504,-0.48484500054270496,0.9735619499036035,-0.8772786382169326,-0.9549987400747488,0.5538274762951709,0.6840026571164795],"value":-0.6890300317880177}]]},{"layers":[[{"weights":null,"value":59.1176126779591},{"weights":null,"value":102.07508084333546},{"weights":null,"value":190.21841294234898},{"weights":null,"value":262.71592620715785},{"weights":null,"value":45.46714342035642},{"weights":null,"value":40.9507345734985},{"weights":null,"value":41.841168812916905},{"weights":null,"value":45.2420696600661},{"weights":null,"value":49.3149559266425},{"weights":null,"value":125.13116864427587}],[{"weights":[-0.3068684843957552,-0.10775590222094733,-0.6923315395388534,-0.6295253091984749,0.9268364893816723,-0.25474941108736227,-0.685865996452506,-0.08899879102546526,-0.19947857144357473,0.315547401606159],"value":-0.996650914916979},{"weights":[0.704941291533999,0.7239720066553885,-0.9639277439032692,0.9996948612513994,0.16781268834385932,0.2898437525920827,0.519533621974698,-0.7472032832370554,0.004260631570485618,0.8305621842144513],"value":0.9967471675668517},{"weights":[-0.6302372761416635,-0.6312153542547594,-0.7698752609265207,0.6738233310138781,0.8959434571636118,0.5589399068661014,-0.7716753109245182,0.9711113339286115,-0.3118909062782804,-0.8964682434516318],"value":-0.9919610617916221},{"weights":[0.9662687024025702,-0.494601795105408,-0.1724167289787597,-0.07870307871862181,-0.7766981119417693,-0.20260165686630538,0.46338337830125553,-0.9780254666061032,0.07211260565433397,-0.049170983611618535],"value":-0.9915898063294374},{"weights":[-0.9363679954137729,-0.22102020481382612,-0.08005759277122282,0.5916523614959104,0.23649790905666324,0.05959649604532302,0.8671212113425333,0.5946805394047838,0.03021633323067041,0.9319259454828686],"value":0.9961206331327979},{"weights":[-0.7767166122655573,-0.28922088336754603,0.027221386399518988,-0.7652795840620072,0.6095033469203783,-0.20092518042985663,0.08715108355570589,-0.00015721974525328974,-0.6446695684933186,-0.20312685566580502],"value":-0.9967362777530772},{"weights":[0.6838335087649159,0.09858137266613376,0.774774246101225,0.7954293586264494,0.4510979049627557,0.6625372251841295,0.4254376543944618,0.463148081627514,0.23793210394927033,0.31979621744504794],"value":0.9981684437772442},{"weights":[0.513642541265777,0.39070865076277306,0.24268887627795888,-0.12911051286380015,0.7930686677941217,0.9616254437015503,0.5263185182544134,0.9858185708571447,0.6828129087493462,-0.5705358686914375],"value":0.9946761105629774},{"weights":[-0.164744008830493,-0.24846428992360003,0.9211986057422603,0.7949355692680866,0.8798289007666673,0.20064581645602653,0.17993473841064533,0.31121627376414196,-0.6399748038652318,-0.6044769926207474],"value":0.9968010164363182},{"weights":[0.7086426671665231,0.2797935714643289,0.15896390121034676,-0.6335491897210006,0.6279467147537958,0.48383599837500046,0.09356162554191538,-0.1699225044271082,0.94597198891196,-0.7019131881621337],"value":-0.9842125801913053}],[{"weights":[-0.08702500543546998,-0.2411083692254974,0.24535597357624894,0.8493597683960035,-0.8391112319360423,0.056290983321162,-0.6565399837173134,-0.33830095041710617,0.07124375398528349,0.9074223428398613],"value":-0.7977784701590996},{"weights":[0.49576109862321394,-0.25319270268692806,0.6998407132470361,-0.279179608214402,-0.11828280515351608,0.9379007411879972,-0.7993074493671601,-0.3489979031398436,-0.10676474059460883,-0.40006269720039267],"value":-0.754551618941653}]]}]