[{"layers":[[{"weights":null,"value":80.81714149352646},{"weights":null,"value":95.81363256538117},{"weights":null,"value":141.527131119188},{"weights":null,"value":14.372780915080062},{"weights":null,"value":78.01616295996376},{"weights":null,"value":77.04109641533626},{"weights":null,"value":68.91463045116294},{"weights":null,"value":62.176002929819795},{"weights":null,"value":73.9374526658567},{"weights":null,"value":64.9091855878112},{"weights":null,"value":1}],[{"weights":[0.8315093263953456,-0.8118795434480659,0.653788039439622,-0.9455510776931664,-0.6702190753612531,0.35629015207307924,1.6709358650456057,0.8706314054847655,-1.8943065114099888,1.7786121324039232,-1.214967122509882],"value":0.994679948278975},{"weights":[-0.6762545450221608,0.3282187953491299,-0.7044346815257264,-2.4165584059068856,-2.0654620475121055,-2.2990745570460356,-0.47119726101083503,-0.8538066320203491,1.1933632175484068,0.0897872427166329,0.12166376775046664],"value":-0.9979519603981025},{"weights":[-1.347316117361347,-0.15657272567488117,-0.38184060233352674,1.4721113623782118,0.050558491893746116,0.7815649915027657,-0.3939822077962068,-0.3753293126101695,1.1109890139781222,0.7335122660467496,0.762019121860108],"value":-0.9263824665552595},{"weights":[-0.7842658840001684,-0.5278369457153299,0.8020257306767351,-2.7922201327480223,-0.7589471745048826,-1.137771311606434,1.8791271823361246,0.5195678414246758,-1.689845790548375,-0.19203922098828058,0.13585385538101805],"value":-0.9938992066118095},{"weights":[-0.0783837146264269,1.0253506412671565,-0.5367865075504912,0.6340879873186073,-1.051535488562624,-0.6013131947296284,0.8888934435207336,0.05960024099014263,1.8797961494972955,-0.5603898692270431,-0.7378710041831067],"value":0.9845027239495667},{"weights":[0.526627847355437,-4.464127762372794,1.4940255499518487,-2.0617506075711893,4.100355621682574,-1.0802106895034957,-1.363123970732163,1.753835854857592,-0.3227554210012411,-0.24668135001029173,-0.6348841023065082],"value":0.8878741747689726},{"weights":[-0.11546464946301355,-0.4852668765685453,-1.0007988706160957,-1.5613814928234708,-0.7743007353076584,-0.09605088978861628,-0.20918857904965082,1.340257165532062,-0.9322319397817599,-0.28035894894994773,0.01180782369724534],"value":-0.9967417515761064},{"weights":[-0.3516784579767337,0.7989662636817021,1.1146294343752687,-0.021344103569242268,2.67494793191553,1.0556053245994896,-2.139400801750574,-0.5766872408963128,-2.1322539206056645,3.790758483917892,-1.3906207573568587],"value":0.9975019159574467},{"weights":[-1.1695587204320061,1.3744741003445167,0.46954243903778264,-2.168735209801229,0.8515354163755245,1.370380537993525,-1.4481110323350732,-1.0501348000425916,-3.6634344423432355,1.830982221046224,2.100126869395844],"value":-0.9860222344535453},{"weights":[-1.1455972221441895,0.030210638871396064,1.5878011026247472,0.7843733117689732,0.3149946782828104,-1.8022341260506476,-2.3358450339672094,-0.250599996178969,-1.0517097311917643,0.7830280581116011,-0.15196905930517912],"value":-0.9942066719531218},{"weights":[-0.5864029241369619,1.7171654125492284,0.803725959429887,0.15509506703803644,-0.31203072564604384,0.5733519666040232,2.1649155262961344,-0.8965754868842138,-0.5178565407739578,-0.5523758187139352,-0.6185451821814008],"value":0.9963320239968956},{"weights":[-0.6917740096609512,-1.135200394435807,0.43838810507959874,-1.7139334848112442,-0.7859627393570342,2.0401958931172026,0.45046666088324316,-0.13443670130228538,-0.9338414511283969,-0.33186394587764534,2.063937848793011],"value":-0.9898210387725029},{"weights":[-3.829337829275173,-1.4389049990457075,-1.8038649372323674,0.2392228082141633,2.7035576041505918,0.19790831053603475,-0.7284819005227465,-0.693840706662803,-1.0339517998604995,0.6427324031884829,3.092993337263349],"value":-0.9983305814513809},{"weights":[-2.4755749651938865,-0.7029113224523916,0.05130514434379255,-1.6401853258337034,0.09360545159690714,-1.178366999796448,-0.68681737426166,4.195023237496344,1.2305350180083245,-0.2948596673740246,-1.6395200621852843],"value":-0.9881668380321026},{"weights":[-1.4976094458433153,0.19080975247495863,0.07245776865432765,1.464172060826316,0.06943000357056298,1.0517711645214285,-1.3216352970967895,-1.7476602644695025,-1.7819048530289638,-1.040318928902273,1.3273253061434147],"value":-0.9973937706187784},{"weights":[-0.8888502207692808,0.18494255998958262,2.921181526579448,-1.173856554163987,3.3135859552061886,1.2050067387072856,-0.3928213928535319,1.7306857822262587,-0.49571255000790493,-1.1501828768220246,-0.7008036938351954],"value":0.9984924203423384},{"weights":[-2.696331798903951,-0.5798876758212748,0.7716890843662871,-0.6286814502456903,1.1091597792722516,-2.559041454773641,-1.060368198486916,3.994269683374205,-0.5254223011158895,-0.16500984145308248,0.9897835817077172],"value":-0.993679179850226},{"weights":[0.22180445773900268,-0.20666324959649457,-0.8561857392044653,-1.6784437400888395,1.50707142810449,1.4005445883265788,0.6164497004060627,-0.35626905699352795,-0.5597481798373982,0.1451492842627577,0.35975755282886085],"value":0.9853002554475334},{"weights":[0.11454587214494616,1.1442082293622007,0.06495625095461159,-0.7272422281069623,0.6384522395839126,-1.2263910250557013,-0.41973671906870325,1.207404401660279,1.0625588083833104,0.2406309027915506,-1.6308740636448382],"value":0.9952974908931692},{"weights":[1.2178584514886266,-0.32350711651881214,-2.4173277410279783,-1.0489013154636668,0.9678578192190066,3.88809516262214,-3.5336939884641865,0.5544399204905422,-2.205625390990143,3.239863232665679,0.3719799192119339],"value":-0.9870422330178411}],[{"weights":[0.9868859486949983,1.5354645730680445,0.3699867989754943,3.0002729581496417,1.2558038569201604,-1.2411385079595287,-1.2517611794439654,-0.6457091763626712,-0.381026455067711,1.9011883024957636,-2.198424437884322,-0.5618080178428292,2.0840136886003036,-0.9483690842511726,-1.3975427975268855,0.0371846129511392,0.21623151865193024,-1.4019657125254947,-0.1306330306101859,0.35386714431236294],"value":-0.8897959223972617},{"weights":[1.3606401085514412,1.7424385963762816,-2.0194338909949145,-0.1706033802352107,-0.7867795652701617,0.6510150335987943,0.22685578194441802,-1.492192839057474,0.7111969283902251,-0.14554702081255402,-1.1798287596221362,-0.11072957464579324,-3.5897529125955314,3.0048221536509203,0.43519005771000896,-0.7256433747186164,-2.449964487638659,1.0074136434774168,0.18755964161846847,-0.3549007714991592],"value":0.6064874134017445},{"weights":[-0.1523437771533397,3.1890398626231145,-0.5989187157581658,-0.07595457422434057,0.12890587398928452,-2.0429191377643194,1.3353350311019527,-1.6079509081818697,-1.2329265075275684,-1.1636351524887585,0.6543058670322996,-1.110538238481868,1.0646036441215674,-1.592260060413269,1.0980751706223835,0.6049603423648133,1.3897825066038256,2.7095713993560233,0.4534508560221755,1.1818310722714662],"value":-0.7229064428024109},{"weights":[1.5177527746059227,-0.06747444993766025,-0.18713207714713828,-0.6161728038950864,1.6785222015421215,1.4957991661309489,-2.50307243610312,0.74523815810955,-0.7885619672564277,-1.9780530650540482,-0.023382160213958676,-3.08932350806531,-1.073879472878536,-0.0645791402538993,1.52151325130761,-3.413490638123738,-1.5485501292107386,-2.9698386044069403,0.007824991089912636,-2.196596377168331],"value":0.9190866033468715},{"weights":[-0.6268281921617551,0.6586301702057805,3.6046170749707804,0.8532675052790061,1.9502601625094642,0.7971007815695881,-0.6829889535434743,-0.9947880977295976,-1.036520236006545,0.37878472382193235,2.243291357057843,1.0268280712168876,0.17269324759032167,-1.8174258408043529,1.1885669578208509,-0.0727921582720236,-0.30261208689236396,-0.04765090910974114,-0.7793591902136924,0.4261990101018836],"value":-0.6509596468457641},{"weights":[-1.2546586783969158,2.731403200611328,-1.339848920453179,2.249682368834832,-1.7552700460577675,2.115731536410833,0.08004911771371326,-0.1276780152034715,3.5411190449109684,-0.023415596959185728,-3.7238675035441307,-2.49951679948062,2.513296051247605,-0.6755723867737637,0.4521716307902082,0.8029231024665737,-2.494116997182046,1.9975737269241953,-1.7399273354210447,2.216537623527237],"value":-0.9144826134192146},{"weights":[0.886334742068008,0.379908451075355,-0.6268737989211464,-0.12968040790059637,-1.7170695171023993,-1.2140753502153232,-0.252129994498211,0.6312126620919865,-0.5360165451716701,1.6185767028970168,1.0274235650818753,0.2902064693988755,-0.5161365461468478,-0.640469590721338,-2.8499447186780897,-2.292551928195353,1.4076022894048967,-2.4013411062192076,-2.2578328120811118,2.662151475193532],"value":-0.8883637337272544},{"weights":[0.6201375043284019,2.2951219220039945,0.1354650694574473,-0.5492861659806111,2.1295666251680676,0.4982100127720262,-0.16854452106771836,-3.7002468051605684,-0.4748349105115952,-2.412291275302009,1.4365732380378091,-0.030339606794364565,1.830514455335028,-1.2078368002638515,0.5938835780435695,-2.7836814708639404,-0.6713634599061078,-1.2155973682352141,-0.5217514804102977,-1.0843946509287206],"value":-0.6545393766908947},{"weights":[1.2741630731737115,-0.7914467757189678,0.7752604341302227,-0.1904850625665321,1.9810919141956282,-3.03208741335208,2.6645785690621073,-0.04897288370276288,1.3456581143267028,0.24276710891641154,-0.15874248243204092,2.0687784328357504,-0.48801780705005676,2.0122834696024325,0.3824933083536647,2.2321636372948075,1.1492848558798943,1.5864531229466716,1.740421607272439,-0.1170699094379716],"value":-0.7547383171382388},{"weights":[1.0835297029743414,-0.8893223615941229,0.4732666377298068,1.469972456525069,1.3799810230844585,-1.6860396077598916,-2.136107112051787,0.0024258106340507603,0.005478181984648882,-0.8644173224331104,-1.336271036372612,-1.8501151263572237,-0.3117187818180992,1.1849113866172591,-1.3282937398224544,2.2219951754244867,-1.3390709936691083,-0.9734558297963228,-0.35108076608413485,-1.3604685195911266],"value":0.8818188208001061}],[{"weights":[0.06765322540556708,-2.5097598449196146,-0.2790502113666259,1.7053432004183378,-0.5450778524907788,-0.8848044476085358,-2.3535972741256925,1.0074707527775648,0.05296082235353231,2.67718318752902],"value":0.8361448709947493},{"weights":[2.140408828712292,-2.8772251226140466,-0.6451328234574698,0.22916608334468308,0.6645318683178689,0.10372281287553779,-0.566574159614848,0.07786277266674138,-0.61830712303133,0.6208402731017443],"value":-0.6703457680891807},{"weights":[-0.01227535925065993,-0.704936319354932,-2.6107420727240216,-0.012668339163936126,-1.6819912047327608,0.16947304810044425,-0.7580119777877602,-3.825847162854031,0.2697645454061547,-0.541294065836189],"value":0.8303827796674386},{"weights":[0.08684525359082579,0.11554886763519273,1.9318790634953222,1.0013704758920612,1.0675173813755428,-0.9934114044689817,-0.6386977120431802,-0.5844991723089393,4.72356528845825,2.950231730313764],"value":-0.22080923944221628},{"weights":[1.0428054650934724,-2.846576672439727,0.40930893631803145,-0.6009430178937575,0.31011143339931313,-0.17624821029665264,-0.5178352220485865,1.788014892241731,1.0113844159907743,0.032528615836203256],"value":-0.8330034642834447}],[{"weights":[-0.15426282014142512,-5.56815051485953,3.459746535137921,2.4428994853283412,-4.155843191313333],"value":0.9038362694227952},{"weights":[2.4688745407310466,1.1090870565373125,-0.5082393322270656,6.271103843605532,-1.1561096716524975],"value":0.32302410591825204}]]},{"layers":[[{"weights":null,"value":12.274201713641064},{"weights":null,"value":11.516574483542822},{"weights":null,"value":12.237219245855657},{"weights":null,"value":14.981708439653405},{"weights":null,"value":15.086295911581429},{"weights":null,"value":86.09705596643622},{"weights":null,"value":76.74547284108522},{"weights":null,"value":159.1710502761379},{"weights":null,"value":76.43973513055613},{"weights":null,"value":77.93802613920363},{"weights":null,"value":1}],[{"weights":[0.9347325646506444,-0.8898320490231281,0.749749175733783,-0.8071511915591316,-0.9318284782801849,0.22091238904571447,1.671090375292516,0.9896721259173519,-1.7671760201240783,1.8450249906793417,-1.2171557993933741],"value":0.9966391462296352},{"weights":[-0.7870792848490871,0.42397717796456086,-0.6489346308650529,-2.3262255275871073,-2.1920751335119864,-2.3979779333542903,-0.43571482674378764,-1.025346955303901,1.0158024191513642,0.11153594451410148,0.11346145726043548],"value":-0.9974892653482469},{"weights":[-1.383165904332332,-0.14482196931483762,-0.23015792855419476,1.5137001868152338,0.002277922627168416,0.9348738152326814,-0.4530773848201788,-0.2534324235258659,1.257302767069115,0.7882166138862482,0.6975413823931637],"value":0.9939710803298888},{"weights":[-1.0116034743879205,-0.47432094126779467,0.705989469373156,-2.7545875983146475,-0.9392735325396575,-1.170957268242137,1.6867516603644195,0.4217847993248631,-1.703840458024104,-0.10150567078345141,0.18248188620995293],"value":-0.9907302427080739},{"weights":[-0.06459470339805733,0.8602191027617562,-0.6138936564963579,0.5068096203820192,-1.1362318632342365,-0.7834172046211364,1.1164590531062502,0.24508784142764864,1.7264068228424752,-0.48987610975277385,-0.8582747977603061],"value":0.9930179739330163},{"weights":[0.6018217944539126,-4.723115172066283,1.518644490967987,-2.13595096287782,3.8834953073665144,-1.0610063217434829,-1.2939621068666318,1.7598582660887174,-0.4191369331536702,-0.2560117606765667,-0.7140945855532199],"value":0.9721615165058703},{"weights":[-0.04827242673159968,-0.2855033046149763,-0.9947599813252,-1.593785712068392,-0.5644280823015991,0.10161680198702545,-0.18456130694559028,1.136394069802397,-1.0682944270244799,-0.280622985209758,-0.08458442625290045],"value":0.9590220830281218},{"weights":[-0.12555650438120408,0.7356894587215793,0.9872686572280178,-0.13439265686780366,2.643473887463371,0.8687337429366765,-2.0212167686099756,-0.6644783179452538,-1.9603513310924823,3.9276192829973224,-1.3116523319853148],"value":0.9626038380768966},{"weights":[-1.3224366606946123,1.3435810911104755,0.4234977994642874,-1.9048989437576933,0.7036104205295152,1.318397958906503,-1.6431597508817106,-1.1485027294572239,-3.8286229406783376,1.9145212630876747,2.127021370069667],"value":-0.9971527890405634},{"weights":[-1.0320730531458335,-0.22070217716800525,1.54086753769796,0.6576542498080375,0.1511735383684246,-1.7679113991168671,-2.2775260300653652,-0.4454886926427274,-1.2141454361257122,0.8209802810642101,-0.026869856235985652],"value":-0.9975727045600626},{"weights":[-0.48241020438045407,1.84232662190702,0.8875331632634644,0.3389611018705825,-0.4038022842263571,0.5249259554510841,2.097022526533451,-0.8171088269843699,-0.4362586038728669,-0.4329757863591285,-0.41617009716965503],"value":0.9711864713730222},{"weights":[-0.5872170859013295,-1.0101463360966327,0.3880604741165667,-1.7146869626801495,-0.7521691091238455,2.1049738516577885,0.6396057352988714,-0.21912026201933446,-0.8226769263477025,-0.4445210374221386,2.2799484162464085],"value":0.9800248859633478},{"weights":[-3.96577628035581,-1.3811053774956856,-1.7791655346942976,0.20942101659362022,2.4464698207288365,0.1492845283030395,-0.8295859573984183,-0.5767781662034667,-1.0085306997817904,0.772761518367866,3.166457381998839],"value":-0.9950890593404331},{"weights":[-2.472422870780861,-0.5664036585393628,-0.09523620461263312,-1.5305650528408212,-0.022564602541604473,-1.1623553606306678,-0.7915959079064128,4.1918290206927695,1.395367042563509,-0.375659982955189,-1.6294474080325005],"value":0.9980836983980558},{"weights":[-1.461607451248426,0.3658471251648322,-0.012274142070050204,1.6296555382060556,-0.023150658963106807,1.1964675135694605,-1.2204775129415701,-1.6198536235686207,-1.7337174787417136,-1.0517194896212647,1.2209693200036418],"value":-0.9977904052018808},{"weights":[-1.0752657237245173,0.07219166789739098,2.939541842822502,-1.1541446419733572,3.549525381439044,1.3925464509682703,-0.2370881594616832,1.6004513610881437,-0.3869332354960081,-0.904304017369872,-0.5435017278345702],"value":0.996842510489191},{"weights":[-2.764879327359226,-0.6542343838877869,0.4674889382875255,-0.6868543964090748,1.2426185144895001,-2.5877357779417034,-1.1241332784056233,4.0432213882676535,-0.3868610020621983,0.027044297374217735,0.886352971877775],"value":0.9964491612174613},{"weights":[-0.029239835950901072,-0.33514212707453056,-0.8661220663340613,-1.6796306629426605,1.3282689436746582,1.3403990676447741,0.5430448616788998,-0.2727545742761657,-0.5747499117712389,-0.007549561205037358,0.3392160155162037],"value":0.9802138934275517},{"weights":[0.29440175487597386,0.9128084540980295,-0.06415592454784749,-0.5701004221971773,0.49226911694213604,-1.3888646468738604,-0.5760952949613815,1.384276438135932,1.0681270696800311,0.4154226701925458,-1.9343813398177405],"value":0.9945013670740998},{"weights":[1.2651297299526219,-0.060089009767793106,-2.4269152465426074,-1.2412469539816045,0.9471247744271838,4.057649094051486,-3.7480621720202922,0.5464880694683645,-2.3231125345975805,3.130880768206694,0.5888716321351259],"value":0.9949378801476314}],[{"weights":[1.1627260550319736,1.3492740075064118,0.512005979406303,3.1486893551465385,1.23134870615772,-1.311068661209198,-1.2299859784166975,-0.84423155267494,-0.5248477310844202,1.972780125478169,-2.1924659123420094,-0.3098869169464624,2.003597282270112,-1.0395059313812616,-1.2704274479015276,-0.06206103849682352,0.28787724606921195,-1.5299643719558436,-0.1594981996040924,0.2710224179582109],"value":-0.9209277814801831},{"weights":[1.3726899096072942,1.7629922638408029,-2.1313740004274906,-0.3515834626109409,-0.6843394536937293,0.6342105132962473,0.03132007470456255,-1.3384389166356963,0.603914300787141,-0.3489114560660397,-1.2827616431158153,0.0747635426319877,-3.473836846375304,2.9464464581891137,0.5232002594733215,-0.5691735560713836,-2.3027400598904975,0.871750129696292,0.34838871084130535,-0.4837960308778253],"value":-0.5403324425964583},{"weights":[-0.02150743295700233,3.139229131806822,-0.4900066804600012,-0.16334756870480563,-0.0653527970873453,-2.021081081978806,1.4110495952200535,-1.6831927598333414,-1.2611858616247997,-1.1898896282503713,0.5921189941031006,-1.0452766631627055,1.090955021774186,-1.498542054456407,1.0263751871806464,0.6425376558798239,1.5153023032735813,2.833110208194865,0.37932521316586015,1.2363947307032175],"value":-0.45945752809248513},{"weights":[1.4288684652712251,0.062097044041941246,-0.2549886494299581,-0.5865754059014907,1.8709566822324872,1.60453396716905,-2.700208816176685,0.5930016295683582,-0.5231917002558452,-2.0572187121264256,0.0630985110193347,-3.0893904675989723,-1.1350458786474833,0.014249062646873114,1.5027688354133564,-3.5870175314362904,-1.497918135218272,-2.9642579429330476,0.24255563741809089,-2.1771325143628424],"value":-0.88315268117227},{"weights":[-0.6744641125943412,0.6730889242206862,3.853878748343375,0.7454342765558835,1.924386887581674,0.6853393403230373,-0.5422806574828627,-0.8847586808079417,-1.238257273197576,0.30231491762551416,2.3307989955142845,0.9428764249561047,-0.02074661950322107,-1.7717790049119966,1.166652558122871,-0.2229090348498308,-0.4280535843742258,-0.2213607315205307,-0.9851783333136515,0.5264708215661291],"value":0.7396747198691519},{"weights":[-1.2875384498324387,2.9780719996306972,-1.155786326168759,2.3673615719888406,-1.6874206142925616,2.22136358700196,0.17059801827658572,-0.10224647393791968,3.4003861580882235,0.027714863019365238,-3.683273628992492,-2.431627562786233,2.465518292221914,-0.5933884641270242,0.511615830261442,0.5617015680649429,-2.2821748645532365,2.1435307946465096,-1.6973396182232126,2.2264345264635996],"value":-0.9505428872808259},{"weights":[0.9631564963192428,0.4663189185432354,-0.581092638290271,-0.062335097927304704,-1.686918545586152,-1.3252815289487208,-0.16154587296637596,0.5842207425320196,-0.6317751954687063,1.5506782221677573,1.1044128749494782,0.35482195364192204,-0.3811040513229699,-0.9342971515706863,-2.8351387000121875,-2.2468749655148317,1.4975404549582367,-2.28346801584911,-2.2840955343760077,2.6336543378759627],"value":-0.7088972182566945},{"weights":[0.5145297904217319,2.173748520705534,0.031728924286691475,-0.5157428290261432,1.922089970915466,0.6357420583030595,-0.33791857067827213,-3.7595936995478185,-0.5689754923318701,-2.3536245656251147,1.438233571755614,0.16556066845795753,2.0427740871121056,-0.9462939686479132,0.5522034570241451,-2.9514216883529123,-0.763933760594978,-1.1778688967197013,-0.44068987244454977,-0.9417611766628189],"value":-0.8865748597305435},{"weights":[1.3207293612056275,-0.702947202103809,0.8071001687137381,0.058271463903366766,1.83254658553508,-2.917866626547997,2.755175911831406,-0.03546548052200374,1.3910036504408079,0.2579697299840021,-0.0014285489759557207,1.9620584762172202,-0.540790370883741,2.1195706331954858,0.409889436992047,2.129030646546434,0.9416411243256253,1.6857881244936026,1.5646817812606069,0.01408123265840984],"value":0.9293690724981216},{"weights":[0.9980829178407147,-1.0356686618804134,0.6585565984118578,1.724618201857991,1.4616293066003556,-1.7314026394734638,-2.0072783968030206,0.01257627341715843,-0.057873816596724206,-0.9041328756542744,-1.4124787441351043,-2.018406192566843,-0.3994598966739112,0.9530568665165086,-1.2185045302852417,2.2782128423456363,-1.4336800896333115,-1.0794050788005447,-0.18843810362366908,-1.3714811190710383],"value":-0.7343381827528714}],[{"weights":[-0.10710118791314635,-2.4152585024204174,-0.4269299480479688,1.8698787035372608,-0.6052640985396983,-0.9072420109389641,-2.2429596438014934,1.1482054476025123,0.15137731406928162,2.5648324744309767],"value":-0.44677860667679503},{"weights":[2.0057956342453154,-2.7458801734750695,-0.6126773839624388,0.23491177211195127,0.5221894879387265,-0.16064295995876032,-0.6574085807756535,0.08686839563841864,-0.5763919117289371,0.763479400173379],"value":-0.3140504850472351},{"weights":[-0.05765248582353179,-0.8284300132509101,-2.4843700447894586,0.15626306080585817,-1.5468214787817782,0.33347513505571125,-0.9474574790764634,-3.81552803975602,0.0736666889559251,-0.506519648919999],"value":0.8194252908946207},{"weights":[-0.040247464208748696,0.029578892455068805,1.7650049622476067,0.960187384554363,0.809659843791497,-0.9710239575732358,-0.7275761674878881,-0.554048519254991,4.72921894102039,2.9400858807777914],"value":0.7577041147438611},{"weights":[1.1201108051775195,-2.83617056975707,0.29472762096851013,-0.453940301982668,0.5257298028058766,-0.057075969496721626,-0.513700481194936,2.0027729648040142,0.9912393511576558,0.057411474994447396],"value":0.4037540449520497}],[{"weights":[-0.1776032887789162,-5.52916463308922,3.5110204556783664,2.4922510440353487,-4.0154283791995535],"value":0.8322133170617326},{"weights":[2.34135889872643,1.1204813676385157,-0.6962124648669409,6.432754780217306,-1.1868129589736756],"value":0.7081564449839637}]]},{"layers":[[{"weights":null,"value":12.996748486716687},{"weights":null,"value":11.84698706341651},{"weights":null,"value":12.240512759991711},{"weights":null,"value":14.465820675463824},{"weights":null,"value":16.612781429526482},{"weights":null,"value":88.4304422603125},{"weights":null,"value":81.21008502652113},{"weights":null,"value":167.1838861359538},{"weights":null,"value":79.4450517255268},{"weights":null,"value":77.25790288311406},{"weights":null,"value":1}],[{"weights":[0.5402108142887315,-0.7535740002643764,0.6470971726497751,-0.5975299291508109,-0.2623266771475068,0.5839760925336986,1.3220868347809052,0.6627196669741348,-1.1742172263110557,1.557984390942943,-1.0027623055821149],"value":0.9965504711408006},{"weights":[-1.004693554015835,0.33298362502412643,-0.658275339184204,-2.3088996314762396,-1.7780817610670072,-1.9760432881431171,-0.5635695230476282,-0.7676547345335952,1.1697966677499458,-0.07140971591693987,0.02610376200103115],"value":-0.9970804219919651},{"weights":[-0.8450696294792756,0.13613990159154105,-0.008232545985379869,1.1271098177836854,-0.10954596827053786,0.5582005939148188,-0.3125665571763692,-0.10461045631843999,0.7644703031021087,0.8367424125395478,0.6970039621450066],"value":0.9927838557886496},{"weights":[-0.9552034196856944,-0.07413832433908421,0.56938780773469,-1.8928816914458522,-0.7398487489609978,-0.6832511584962778,1.5542518120243582,0.4274901276519349,-1.1717160823237105,-0.2932475581365163,0.17746767604860758],"value":-0.9604608310001872},{"weights":[-0.2046667087037976,0.7589372097485244,-0.21409496047312368,0.5980387544683892,-0.938722168059694,-0.10673747930096092,0.7803525510665805,-0.12339839728110993,1.6582745983200646,-0.6570621884948075,-0.3600519891702816],"value":0.991046539876994},{"weights":[0.33657669223236863,-3.253392512878954,1.5651690187847476,-1.5965526585916432,2.9962247756431513,-1.114432502889838,-1.0800408623922664,1.3216599413200738,-0.19023122193341746,0.07753508474966238,-0.7907275145726202],"value":0.9733027025219186},{"weights":[0.33319474146736466,-0.6694741406959244,-0.784761034586325,-1.009146707881831,-0.5910059170190579,-0.011451378494767739,-0.20678776465123094,1.3584754590947283,-0.8962006148093492,-0.6148922441761308,0.15947872498411458],"value":0.9815299568533374},{"weights":[-0.036388278273693425,0.46199701535215043,0.8265521737210084,-0.16679579578567494,2.2411091349345287,0.7428543636956496,-1.8363487893025943,-0.4282112750272082,-1.3871261625448261,3.0584581141343685,-1.2583935442037764],"value":0.9517798402580222},{"weights":[-0.9550324925090943,0.9597556822537198,0.4832336081884546,-1.5158244945099326,0.4521677809975929,1.033979586784471,-1.4898216379939244,-0.9458035096246041,-2.786564510544679,1.3830431740069713,1.774411889353529],"value":-0.9967842833073878},{"weights":[-0.42873816487187283,-0.10677507219753754,1.2691391041150597,0.7647983685912773,0.5176702138658127,-1.0859098606967679,-2.188561005227254,-0.12541157517711882,-1.0478862431027025,0.6750102170445462,-0.2310354034061861],"value":-0.9966521248460195},{"weights":[-0.22698534167929205,1.423245065575266,0.3684589715463351,0.44354992796359927,0.0284584068591556,0.3636024859542041,1.5431783593982948,-0.600423907808788,-0.7785967162063527,-0.6739831684442792,-0.22709899342746362],"value":-0.9694647175416802},{"weights":[-0.4423321537230678,-0.8289103862335837,0.3767085107469087,-1.0868314467039517,-0.35591979669020335,1.61788487938204,0.37742881573620785,0.14790485181146693,-0.6411646325145368,-0.10456009103464863,1.3474695201017022],"value":0.9908414874869971},{"weights":[-3.399532490821734,-0.863894007008388,-1.3296400939184692,-0.15255021620119674,1.482492071483486,0.1286263524468137,-0.4505763773118848,-0.5105589410696746,-0.3265398671819252,0.17652319446794112,2.3793750250774064],"value":-0.9941096851577128},{"weights":[-2.2634289113947506,-0.5131968122464948,-0.3345796943211814,-1.5908971364121218,0.46058262216279366,-0.9347773641222152,-0.5481920242771464,3.0584326024621507,0.9400446768351676,-0.5463186819903032,-1.312892614682653],"value":0.9972325706206016},{"weights":[-1.0198502392112174,0.07781359513981878,0.18159091319729123,1.0999443676531766,0.1981464561578802,0.5844170388102286,-0.6611370031922265,-1.3910096667272427,-1.4112255026734548,-0.7421743765321921,0.7071196465716336],"value":-0.9974697540013805},{"weights":[-0.9643255890905176,0.2183141516502142,2.523254653708893,-1.3020813999539356,2.6809592943024962,0.6153745908319592,-0.2427889531495289,1.6592395215983071,-0.5949533028165486,-0.6065988114492897,-0.2477136609937028],"value":0.9962315685824369},{"weights":[-2.0407966841521104,-0.6903434391693501,0.4658151355833588,-0.5077154103063315,0.8131332660541868,-1.75692097362648,-0.61005260069389,2.724334076572134,-0.8242052040784735,-0.29096850713517014,0.6961313329521683],"value":0.9929307646815783},{"weights":[-0.02148151513362921,-0.21569447393218397,-0.7130181604122396,-1.27831420789704,1.0023231816233193,1.395103837678938,0.44434267694815766,-0.2993944166664533,-0.38516256425763024,0.06934033525257885,0.3146450061441804],"value":0.9861247151313506},{"weights":[0.15438879157266555,0.717955673995107,-0.21984755839763315,-0.11623386624406726,0.424872596807836,-1.1465563056034649,-0.4392079299909959,0.9686199141726887,0.8889677953558414,0.18518315099219818,-1.3099496926917122],"value":0.9918499122852137},{"weights":[0.6455599251027989,-0.4903971654434573,-1.7736235460666951,-1.0579261803793836,0.7846594365878992,2.7427031046532155,-2.493635907837698,0.5653040658925572,-1.4061265295144365,2.3212554776711287,0.6132284732706221],"value":0.9945169592918217}],[{"weights":[0.7267930426971024,0.7894060408340192,0.352257172213624,2.3116827005933547,1.1770616437317762,-0.7265882869204485,-0.9775945852390536,-0.32938165182693063,-0.5801270157402283,1.576468560219279,-1.7639788371233172,-0.4243645677916249,1.201898809689892,-0.6033972608395303,-1.2656246145404642,0.05955259370633145,0.22113860248263337,-1.1128406483616682,0.3018092207518379,0.13530397398233818],"value":-0.7711192030251581},{"weights":[1.2530478311004845,1.312480468829433,-1.7420605869260486,0.03635567726077948,-0.7838241445516472,0.6800560009777237,0.22225681031451153,-1.2508753229280816,0.9201274284243791,-0.4120451823355503,-0.9910842843177977,-0.2235194308887209,-2.44352422890476,2.2119715487938314,-0.09343114366808317,-0.4702358086337508,-1.69656303313116,0.748565443010396,0.281272618672852,-0.2894587806633156],"value":0.384854996643123},{"weights":[0.0354473617982633,2.294366376742394,-0.6007984844524722,-0.03961214153008393,-0.0621888343716368,-1.5772734479635904,0.8249795555917444,-1.1935365212676514,-1.3153289399923276,-0.9137347452553993,0.7958313888901357,-0.9424450285049041,0.9643829123987343,-1.478721997823775,0.8800095302285412,0.52569634797546,1.4055068124393661,2.0377777449338317,0.3020080737960085,0.7227037917535458],"value":-0.7207799994346508},{"weights":[1.3700511410622878,0.219168733714204,-0.5649160926037935,-0.6839445717154701,1.2314441149264168,1.1443398530585225,-1.9001905928782201,0.38588478230077505,-0.7661051587466636,-1.8296475249378565,-0.09573490199449242,-2.103169492476911,-0.7104336888533967,-0.04990662674246241,1.188140407668282,-2.777825181468772,-1.3975204602709028,-2.3559816186448717,-0.2635699360770913,-1.8705539842261574],"value":-0.8658320667476812},{"weights":[-0.07278915366429906,0.30256850312032296,2.9024171455558005,0.7236968929035115,1.3068846833307588,0.8454479298142288,-0.2914503384649429,-0.5357919699579121,-0.8984490814384509,0.4134330685304647,1.7026145964792474,0.896401408425393,-0.1969137189409434,-1.436096115366988,0.8997334698972946,0.10812190321199477,-0.6932046530871273,-0.20215630051696815,-0.5227041545483091,0.030893730154154406],"value":-0.35325464225021397},{"weights":[-1.0464030179094825,2.252239137771073,-0.41331608116289165,2.1659679529236717,-1.3631504614519006,1.2405206149085513,0.5007346438108053,0.01152495528847608,2.264910467321302,-0.08033756759981209,-3.0404938805711503,-2.3158542408692506,2.172109099282075,-0.6897227330260681,0.34093857145626005,0.44945724500343587,-1.7513508028370732,1.3827293705497512,-1.4696180173158475,1.8138835454021882],"value":-0.9066583203982631},{"weights":[0.6314060124397292,0.20323957805868853,-0.3509536941214001,0.04919226889894365,-1.4734269659276298,-1.0084436224963922,-0.045118155031189086,0.8942772488539152,-0.35981066056713695,1.0563382060194877,0.5627173609970592,0.2298127135868927,-0.2846407598775389,-0.36553663634092304,-2.2161390577340483,-1.9544501535223737,0.705894747326088,-1.706739299918747,-1.175749409664277,2.4597091606763595],"value":-0.68113857639644},{"weights":[0.8516661199968099,2.010577493549417,-0.3340103272630849,-0.6430532035056369,2.0120090616471438,0.35578397886659613,-0.025941510393262895,-2.7548499418754115,-0.6813716383995422,-1.825420321139963,0.945356918942663,-0.2504221603512152,1.744521236750551,-0.7027817148693625,0.32748179290502794,-2.0356394013359402,-0.18732523970957676,-0.6835501672214511,-0.2215772844257447,-0.6828855262187123],"value":-0.8647178280776153},{"weights":[1.1373281889838536,-0.7615174669691898,0.7010710692931996,-0.02901405247266163,1.1425506024485106,-2.270034610753562,1.913793473570594,0.19878860722657238,0.5117734114452509,0.5792239579940535,-0.04328473269982286,1.8116180246662918,0.15691690833543323,1.8567900508892605,0.09567887054885404,1.6735808831797865,0.8478423442083128,1.1649593001450422,1.0096805030092342,0.22933233382663462],"value":0.9155716306962782},{"weights":[0.6191753250562769,-1.0793556506941655,0.12330240768045919,1.5725716397362872,0.8841865065858157,-1.0495350345119148,-1.5173692241578687,-0.41363311800096647,0.2689005428208505,-0.7023844808160572,-0.9824305999524137,-1.2609771090619668,-0.35457568920049354,0.9892563027477711,-0.8959572141591697,1.9609858877317858,-0.7649379552689969,-0.6856586236511003,0.05027258612802084,-0.9330860351824956],"value":0.22148505509531435}],[{"weights":[-0.07725412876786725,-1.6316099519741905,-0.3280057244947866,1.1785702435477567,-0.3209850832557686,-0.6690169829846211,-2.0530634091036624,0.9704023545825259,-0.061251132212315984,2.081488538909951],"value":0.24914187239326177},{"weights":[1.9222399870202667,-2.364938205214917,-0.4601605083977704,-0.2760673239240794,0.8167993753489189,0.10214439333736382,-0.45389112085822625,0.18281815873221963,-0.43562292766335603,0.6413943137845166],"value":-0.6977562965602997},{"weights":[0.19183930579692376,-0.8124591192170403,-1.9139797691297866,-0.008113486263082482,-1.2572140441276463,-0.024759476844622763,-0.4193022129044142,-2.9789306513230276,0.022462772973735723,-0.23257460118673218],"value":0.8085439281173445},{"weights":[0.07665439563593499,0.046427415488191674,1.8169346479376094,0.7567370542568792,0.4872939068532769,-0.6945046310439893,-0.5418841760864326,-0.7825715308513855,3.7017300168262346,2.133789901429214],"value":0.7705939889130081},{"weights":[0.938998804502342,-2.210895300057634,0.5026309631731485,-0.4316400109224108,0.40368965714202637,0.016607404276278104,-0.520418665960426,1.1413117267852264,0.7964409755495264,0.21081960884982404],"value":-0.6120600287983954}],[{"weights":[-0.4018379696154313,-4.0752343206618304,2.7505316889887785,1.8099176587515546,-3.404102548588722],"value":0.8941301321094404},{"weights":[2.2339916559961406,0.6962098405450088,-0.47082389017832005,4.623851520456071,-0.7120996432510465],"value":0.7867382853847885}]]},{"layers":[[{"weights":null,"value":172.18455084968514},{"weights":null,"value":116.73653475492354},{"weights":null,"value":11.557695994202101},{"weights":null,"value":12.067613716410596},{"weights":null,"value":67.08372037541827},{"weights":null,"value":60.927462096880674},{"weights":null,"value":62.73711274368722},{"weights":null,"value":16.916493500682208},{"weights":null,"value":62.59604967081526},{"weights":null,"value":87.77481462517932},{"weights":null,"value":1}],[{"weights":[0.8979034608421983,-0.7124179453167302,0.5310555461420688,-1.1203702239400652,-0.812471359961228,0.5316632897509584,1.892839880216864,0.6939368090860939,-1.9444546181622437,1.6774925718066465,-1.1634846449392322],"value":0.9949443883291399},{"weights":[-0.5353136769642697,0.23463546544389158,-0.7323836601449183,-2.296922528272603,-2.230976459605126,-2.316740472319896,-0.6697373811515633,-0.8393169864481147,1.3375665540569173,-0.07157107352352121,0.12931653384493],"value":-0.9973076497646766},{"weights":[-1.1413225278448185,-0.053350482263644056,-0.5562443464882887,1.755842245864987,0.21877325101552653,0.8231824267049219,-0.3582737403670935,-0.421672684513573,1.2158876064589763,0.4733819253584802,0.6156584358626556],"value":-0.971822610266105},{"weights":[-0.703895028535849,-0.45052312212659235,0.7549131673418702,-2.654727283207164,-0.7748939090824816,-1.3107426021116133,2.049592504407647,0.5719655075069835,-1.650122455868599,-0.0861543609056955,0.27491426796165197],"value":-0.996691631172668},{"weights":[-0.14819217710636234,0.9692113500287947,-0.5327673912963943,0.4959656090298963,-1.3099380822329687,-0.5165119723249081,1.0164499860345098,-0.028344164089990936,1.6639022533232186,-0.5623501326714463,-0.5558408784325829],"value":0.9884573991881933},{"weights":[0.6821316796787922,-4.5792469121235415,1.6438258726283133,-1.9891667212182673,4.11796365223972,-1.132957711519227,-1.2854363598626233,1.9541873382434156,-0.23070661753157795,-0.5121058082085368,-0.5149442851954358],"value":-0.9969077706654884},{"weights":[-0.11291076634321635,-0.41165926662979635,-1.2326027168860396,-1.6319421661895248,-0.5479992523244896,0.06902762736878834,-0.1434109563679338,1.3293031905096657,-0.9107425824142943,-0.14176046388477082,0.1405717976396409],"value":-0.9947593044602929},{"weights":[-0.36307363369005263,0.6228754115516685,1.1415955879888882,-0.032298424761825914,2.6292086662092014,1.0268603117574302,-2.1873522306474706,-0.5801346879823699,-2.314889071992889,3.518636533065803,-1.491727643139415],"value":0.9964074421896932},{"weights":[-1.1730843573697478,1.4264351345534299,0.4451914614680044,-1.9054501347874526,1.004811188797949,1.3372312257629158,-1.5292152485742,-1.1635041906100214,-3.756441994660143,1.8937948679768004,2.233289306991054],"value":-0.9886022723765063},{"weights":[-0.944953559119144,0.19844295402687245,1.7233756121885229,0.9386881999458102,0.5121746990597871,-1.765958000033445,-2.333975893791374,-0.19135274708786904,-0.9503691548976885,0.5305187423060369,-0.28397189281458557],"value":-0.9971048287115526},{"weights":[-0.5581072432072913,1.555542222763672,0.9951493092566644,0.32342738970393525,-0.31809726348703404,0.5790546457190643,2.031942509862326,-0.9066079626257582,-0.46975829107722367,-0.27367426278512663,-0.7423508573061132],"value":0.9942465739785309},{"weights":[-0.8614719205764293,-1.340537033392075,0.7417102257417619,-1.8231680799778092,-0.922636883556548,2.292825450665406,0.5816041831491314,0.0508459786575992,-0.826065540805994,-0.35130128686775247,2.1634213804455014],"value":-0.9964848221851359},{"weights":[-3.779578689995592,-1.1193370409008807,-1.8302759986598913,0.3764040703701914,2.8308161689655686,0.1123806408557439,-0.6009885325268882,-0.9274637373495964,-1.2098097580895437,0.7886697989519441,3.0412932593098705],"value":-0.9984829445947415},{"weights":[-2.3788390279523655,-0.5995100789323572,0.3274232985681257,-1.6387464175936466,-0.018528462356847922,-1.3806241525664635,-0.5819872856997775,4.305478525481545,1.1123432829991289,-0.2131028428532869,-1.6059952378840938],"value":-0.9979850807613552},{"weights":[-1.7208626130044644,0.11464198200114298,0.3112717416423224,1.4871650744217213,0.309456356696593,0.9740534145710018,-1.4851466722925108,-1.9932391782934706,-1.8495452957426712,-0.7416894613336796,1.1475146347022407],"value":-0.9979545653564565},{"weights":[-0.8520477088150231,0.18646965270728277,2.9173688239573337,-1.206026549276706,3.34729031947362,1.2973370892701033,-0.4501750258624607,1.6788372442709742,-0.5436187914311713,-1.1591792662983595,-0.9011508697913462],"value":0.9839475497499086},{"weights":[-2.822025585465726,-0.7694572503157006,0.9298430520876273,-0.5535537126718136,0.8902687916599079,-2.6192497823234797,-0.9819828425418429,4.1136218075658855,-0.6701395690451906,-0.1441829028477964,1.0947289057590874],"value":-0.9986073502009949},{"weights":[0.393008510433316,-0.33755191111687144,-0.7956489317029789,-1.5518053119130784,1.5169171143056068,1.522605372469706,0.8093089827646214,-0.11237064054543018,-0.4401739429764648,0.18468064504989593,0.4470595509786859],"value":0.9957237332065814},{"weights":[0.13139250908967476,1.1095354210890194,0.050668477966710965,-1.0486383619756068,0.5028795472879618,-1.3482510945417767,-0.5906350476169816,1.3500864094277465,0.9243844487540425,0.47086736817849717,-1.6434329153796414],"value":0.9943182241206852},{"weights":[1.2146161723904054,-0.5653625467653072,-2.271375049589027,-0.9153199056964516,1.1363437338779463,3.961103980243027,-3.5851294654928005,0.8071606525576744,-2.2051305125449794,3.374405120743724,0.3944235178842468],"value":0.9973096269778804}],[{"weights":[1.196023633058666,1.4362044089071566,0.5405047601401002,2.7918482700633227,1.0283351441586026,-1.1914825264172857,-1.361000367706591,-0.8781307759091793,-0.2920370549329974,1.8940099599541136,-1.8887715417982092,-0.4580536860900828,2.0007487096936685,-1.2048528127620834,-1.496961122042005,0.1409822099714026,0.19565543817010722,-1.438666438892429,-0.11406025240456484,0.4576775925964306],"value":-0.8125903347504178},{"weights":[1.7269067541204783,1.8309410125791448,-2.119217582445724,-0.18416563656915516,-0.761770886565478,0.6934898600444467,0.29304512341080824,-1.3939960142165688,0.9766842422299372,-0.13939238853353664,-0.8497670440865821,-0.02163676124836339,-3.561189295009945,2.9196537848795674,0.35749460650379206,-0.6225389464402334,-2.3334160474355303,1.01935974553332,0.2589596053886014,-0.1544921724753301],"value":0.32514905013516665},{"weights":[-0.16778038808036633,3.108673542733502,-0.5297463260410589,-0.268785223966786,0.28509410166325183,-2.203319029794738,1.5550703920812476,-1.3675320391504107,-1.4708945299479539,-1.0274410797411775,0.6349404693895443,-0.9633654147534911,1.1392394575979894,-1.9019582498761731,1.1150733025628896,0.47898229349958893,1.3020523180766812,2.738205632835895,0.2253568912355152,1.1157203241525422],"value":0.8014407248606072},{"weights":[1.7089661261644515,0.05611990434442031,-0.2552654402809726,-0.5251148243435415,1.7654411487989565,1.4607004212832007,-2.3501631127106015,0.7768366539581443,-0.753756480201008,-2.010690071768406,-0.0020421964087286235,-3.1721748819454842,-1.3369017986208083,-0.09399404212956974,1.6957876163932686,-3.3767709028642825,-1.377802075680288,-3.0829030999838634,-0.09346785185293766,-2.3993205073885995],"value":0.7983774577595382},{"weights":[-0.4857305031487359,0.7479945111171205,3.739658230571757,0.6901058695526783,1.7995164219278714,1.124657851169487,-0.5970444661385502,-1.13254229990682,-1.149648136052463,0.3262756506753802,2.492520845430535,1.0959372084291903,0.17998879796664252,-1.89913977032588,1.0904868472875824,-0.26882758406543716,-0.39612684081176197,0.006405189251129879,-0.7011357621879485,0.6567011761985546],"value":-0.7149764580112338},{"weights":[-1.2975493747262847,2.905491681449631,-1.1146042087397934,2.462835335494875,-1.8457497849204614,2.1291863816431817,0.2061081037657472,-0.08450025620403528,3.6345969475927475,0.07832975047164184,-3.7811054622303426,-2.48486982305723,2.7457188362763705,-0.9269615029935447,0.5656040475794926,0.6610443843449502,-2.4205842228330865,2.030178404419154,-1.9510135585627362,2.3223786465047684],"value":-0.9210514175312503},{"weights":[0.8711514862466966,0.36821142905066695,-0.5440088553163467,-0.330785189510136,-1.7160178428279529,-1.4063448485080263,-0.489760144641042,0.6247699508482885,-0.6799594287172293,1.7291287535395574,1.0289422997637692,0.11232044960978882,-0.3426052356047932,-0.7519178602816652,-2.8204037959150328,-2.0937061673489215,1.336466919452374,-2.219682861810905,-2.445032351645291,2.7419997946677053],"value":0.38961051191934437},{"weights":[0.5756567132440978,2.1911632584585163,0.09022982443153109,-0.5446133820185302,2.33879843387583,0.406908922597177,-0.28004390921772127,-3.92839683415108,-0.7597717665124806,-2.1292829881711612,1.6151208823751222,-0.27570687213137574,1.8221795779027303,-1.341058261541931,0.5739065183588743,-2.9349616957226496,-0.45942666440404295,-1.2131103094268014,-0.645533083849888,-1.1588013147811655],"value":-0.82207916700482},{"weights":[1.1633951097313946,-0.8674414040358583,0.8039359672270753,-0.3406496719791047,2.0902498134803373,-3.0837553603279035,2.503235245877973,-0.13533861420995386,1.1921627257743048,0.2735318674266406,-0.36152135082486053,1.943780860589307,-0.4756943116260246,2.035104235702801,0.1939808438096898,2.278662450400461,1.4362378952333448,1.7129806367685023,1.7135206672695027,0.017997462225237848],"value":0.7391859450821576},{"weights":[0.99042408627719,-0.8498276628723802,0.46320929893874857,1.6545032859391002,1.4778145579208624,-1.7934361045053975,-2.276701891249973,-0.05874323795666283,0.016428800882450245,-0.9236298328881944,-1.558929625676781,-2.0476088389998237,-0.2658184429536579,0.9017802102733815,-1.1381063590326739,2.2360000119150545,-1.3067157323889755,-0.765994481769734,-0.3201559724650311,-1.4589057371718424],"value":0.8895517799411716}],[{"weights":[-0.030980501569719203,-2.34790444112302,-0.4530985119227417,1.6152819893681236,-0.40871232408827407,-0.6982417824818763,-2.239437022043697,1.192294599029787,0.09863099572695942,2.9255283834597994],"value":0.6605810927352745},{"weights":[2.372324588701039,-2.916043303502254,-0.7669807720479271,0.34943678137033407,0.520986825084643,0.30322587995846423,-0.415765019908263,-0.09524395558408419,-0.7379843209729554,0.9480353081037107],"value":-0.7849107747152528},{"weights":[-0.2021337931530175,-0.7842154814995457,-2.654422765136635,0.16047552280230648,-1.5497995208296942,0.1964904268116054,-0.9427950351244608,-4.006466186251701,0.1319785420250139,-0.5742007480168477],"value":0.5745042763600128},{"weights":[0.041997132376355426,-0.02995685984346272,1.8658023977420983,1.0597767858687057,1.1863220526646643,-1.1690203647541162,-0.6344019837832681,-0.7078768155811699,4.696753052408963,2.9792578292304155],"value":0.8998281009000882},{"weights":[1.1149919042109462,-2.9592037822494808,0.4583834153449456,-0.6750015818339677,0.25392352322945877,0.0584106525818493,-0.42087148616399533,1.6279082558175564,1.166099423029809,-0.1679481817309883],"value":-0.7539842937078187}],[{"weights":[-0.034959941920174584,-5.632701653971346,3.390591350728095,2.5779183990286887,-4.212989170813518],"value":0.9221316895658045},{"weights":[2.4822222528715514,0.9506520263609859,-0.42875248660078136,6.145814817463077,-1.1805465341090051],"value":0.8760458991845099}]]},{"layers":[[{"weights":null,"value":30.842146451329715},{"weights":null,"value":14.649185684254938},{"weights":null,"value":10.430829968825291},{"weights":null,"value":8.935526621475509},{"weights":null,"value":122.01499681880449},{"weights":null,"value":109.03497344445815},{"weights":null,"value":80.37359207885639},{"weights":null,"value":9.049260052294903},{"weights":null,"value":65.17528845262864},{"weights":null,"value":154.48006244311895},{"weights":null,"value":1}],[{"weights":[0.6447264186683723,-0.7537009937852178,0.7119981233018134,-0.45105260581337836,-0.25888697098615965,0.5958238455196279,1.536849114052946,0.9049056073465412,-1.1263359471908527,1.635089604641542,-0.8292370446790974],"value":0.9971963552562402},{"weights":[-0.9157447755855258,0.42212862356576275,-0.380968193062256,-2.0716613378186937,-1.9812679105452324,-1.7210005186663597,-0.6430790871968365,-0.8298830505963097,1.0305249844861737,-0.2875954697689045,0.25532208576896487],"value":-0.9980435988752997},{"weights":[-0.7679540873552324,-0.08658631973426367,0.009700336796551662,1.4071272581500305,-0.15540117854879879,0.8630008692616842,-0.28260479472398464,-0.1082716273212134,0.6946361594560415,0.6683455453826996,0.6886568171566095],"value":0.9947193583607791},{"weights":[-0.9565229066186012,0.01608883633488624,0.5909366647705966,-2.213785349449258,-0.6637011958100831,-0.8300804947754062,1.791649585676922,0.4672868188961373,-1.0375683609619804,-0.08665360342568859,-0.1363160283089141],"value":-0.9932563972642328},{"weights":[-0.1812719229153698,0.8620541231942589,-0.2974097130083766,0.42184410368467845,-0.6935537657527922,-0.06532288945305575,0.6572418314105994,0.13193069583854916,1.3452615477949799,-0.762502989650923,-0.5984262781969004],"value":-0.9838017488320153},{"weights":[0.21092671779965094,-3.289100860058687,1.3054790505979366,-1.5738818101953571,3.1943805217837036,-1.2734125800097658,-1.1240428799062254,1.2121790880060361,-0.006442639859242691,-0.1656109868219368,-0.7229697743075316],"value":0.9903560420670576},{"weights":[0.11778043766626056,-0.40627966702145757,-0.7181629448118001,-0.9103798278834396,-0.6005606838410228,-0.3292961071639259,-0.28300438503120656,1.2513958399399505,-0.6530443798416181,-0.2862833935725321,-0.095558191885358],"value":-0.9955836609197586},{"weights":[-0.2463465356998829,0.21957016808034624,1.1151723948694532,0.06709175366008838,1.9851664783123417,0.8428572139875314,-1.835788869941069,-0.20868421013804872,-1.531144234418265,2.9289886027268732,-1.2509459521475912],"value":0.9981650048997158},{"weights":[-1.1241427572170664,1.2011812786329366,0.2648121925648974,-1.6496818038500909,0.3865240896955734,0.9618825531990529,-1.2188352876763362,-0.751955961551499,-2.7392846801482054,1.0321810416451684,1.74706240937869],"value":0.4695892342527042},{"weights":[-0.6072748245892747,-0.32106913477770527,1.5151283649991087,0.7155501548772059,0.41278607820510654,-1.3463673610998512,-2.0797545989435537,-0.22514256091722454,-1.1355504072616325,0.45931774648707036,-0.31804753083212073],"value":-0.9963131927175073},{"weights":[0.049179856712838005,1.6502534645730722,0.422579728785814,0.18600952823088923,-0.0515368572674004,0.13379115116728257,1.4753885277758667,-0.6929685592918488,-0.7739762386981865,-0.4950576198809319,-0.17139174604044763],"value":0.9619491935037032},{"weights":[-0.39641174706830457,-0.9425597214111769,0.27278037222505114,-1.2645678766670383,-0.444269110915276,1.6233723166086036,0.26084485999750956,0.06557474136017749,-0.9013949729550137,-0.2640697659812519,1.32802808831116],"value":0.9209671442452378},{"weights":[-3.428499595756367,-0.9253084979606769,-1.1071953339503695,-0.0686770661919996,1.738192612254062,0.3463799136288897,-0.26819537091133483,-0.2771827169802328,-0.6254410839596055,0.094025931684957,2.4419042759541023],"value":0.9860203922449311},{"weights":[-2.084234589562423,-0.5503734588100203,-0.21745231427246825,-1.2853010018663824,0.1129608764889086,-0.9092857512876917,-0.4886338100629577,3.006375227442752,0.8919484331306482,-0.4736119302104409,-1.1511932405403429],"value":-0.9950176486914744},{"weights":[-1.0003962953737888,0.08636745909990462,0.17460754264131914,1.3036692930323996,0.10086882298550162,0.35663228722311563,-0.8174367631486453,-1.6945020413927876,-1.5359837778318401,-0.9511835187342093,0.7188796989012759],"value":-0.9965903879138014},{"weights":[-0.9820900413852179,0.10887248368818246,2.3193704872524035,-1.3016862798789415,2.6127192355065936,0.926981749551868,-0.5951436565942014,1.5258420567160815,-0.7021059895410132,-0.4298320540923015,-0.622695159307703],"value":0.9961228583190369},{"weights":[-2.0597591722455033,-0.6141274171363638,0.49330369511645766,-0.39663914970913117,0.8700527015458959,-1.8618623126695013,-0.7337507209536095,2.875874312160178,-0.5189206415943792,-0.3291263058965867,0.959399267784039],"value":-0.9964964600926642},{"weights":[0.11550293315361126,-0.3034892084772409,-0.6803968176042383,-1.3862399600006983,0.9430644218370564,1.3592138373269103,0.5414840704163753,-0.21945672504902136,-0.4022786757686259,-0.22300679664799847,0.4307392666781158],"value":0.9955594938621511},{"weights":[0.2955034176563648,0.8884145783427176,0.007086896782198815,-0.35954112155880946,0.715798466213944,-1.2792628957104664,-0.5564415044135681,1.0967681032822072,1.1091588266023626,0.3670305916662361,-1.2196781845071218],"value":0.9835564743782095},{"weights":[0.8403933092029325,-0.4751530844295115,-1.6065597362065855,-1.008185704269244,0.6924705311298404,2.7911326079061056,-2.8128113226328453,0.2307005184297157,-1.425389322510978,2.3702764478458445,0.5326407360316824],"value":0.9976895718904789}],[{"weights":[0.7159990829916563,0.9795780586747712,0.19771248288124896,2.302962163920016,0.9437544274838374,-0.882357856245618,-0.8813016258523063,-0.5795554826414008,-0.4509593905431494,1.4653099400160965,-1.89396240483002,-0.4957085678330163,1.208280207446276,-0.9150836669305835,-1.19399442196354,0.09774682054372168,0.019134370728488864,-1.1080933320579787,0.24679991312602084,0.1843704902121902],"value":-0.8364484795052903},{"weights":[1.1413152105288016,1.1992464366185474,-1.6095983514658267,0.07932292265834288,-0.8402028332411748,0.44563775288593316,0.09692831677306984,-1.3264107614952105,0.6415808637537694,-0.25702268542379403,-0.9978256380224031,0.00026758402114189506,-2.5089751738523294,2.2117263245941983,0.2000897884667721,-0.48709413767984056,-1.8150100526224657,0.5790582420919264,0.07755147316372346,-0.447839815753832],"value":-0.8493541091291593},{"weights":[-0.04476233547421714,2.344297827364967,-0.4873602543693414,-0.13813877559896162,-0.13776426813962678,-1.4754649867897007,1.0153465127861454,-1.1703581963903253,-1.0622147681552232,-0.6676141406405447,0.6643475039323541,-1.0578545353005389,1.1353917560827398,-1.4831486736058495,0.8553605778270965,0.5643832261464664,1.398585083560002,1.8437738054746362,0.32302536185610875,0.9606784337624734],"value":-0.7043548087950142},{"weights":[1.377602940763237,0.14287571333571844,-0.39934956084331147,-0.7235309988802809,0.975092403942931,0.8616172118917704,-1.8372226738449202,0.4760309575969268,-0.49455975107672395,-1.9013341736589946,0.06206339604102076,-1.9882898828932785,-0.685548928771929,0.10072331275720126,1.2232422371672431,-2.5377049673436067,-1.1130068626547878,-2.6122903709845415,-0.31146116964919524,-1.8260236183511636],"value":-0.8182275241826386},{"weights":[-0.34887541184793114,0.36502309442183345,2.954257898025745,0.6698805902412271,0.9711165002647979,0.6883674619919934,-0.24789122048555126,-0.7123247150594896,-0.8897435313026936,0.18800110829814762,1.8045160124389976,0.7724793044202826,0.10019675214200088,-1.4213111940498053,1.1117089461649678,0.3483506895539017,-0.4372824252185853,-0.41685366548996056,-0.3989864996807213,0.09786065884110934],"value":0.7586542062667098},{"weights":[-0.9876185299026021,2.3640479370695675,-0.5117035173481848,1.9512104659350444,-1.466936239641801,1.2224242504976748,0.2848917850428144,0.3248351169309569,2.3057817596515746,-0.06285619279738486,-2.9426548327574507,-2.342518758897556,2.3248884475562837,-0.6653134118952817,0.134200865614645,0.5225279511191414,-1.5582186618743887,1.3370596386083156,-1.485428379380428,1.7822740575491332],"value":-0.2843870704197052},{"weights":[0.6628636649467896,0.37288929292149736,-0.4158719088065163,0.26336955253423333,-1.3743171784705217,-1.1472432862097353,0.09634970403333357,0.9714834805000014,-0.4044534523835801,1.1130901368075194,0.5925071164324321,0.1254159440758369,-0.21702325703309638,-0.31714991394926206,-2.17987474848444,-1.9104808980824306,0.8726067171666725,-1.9289482857079414,-1.2964853616073,2.22303035018085],"value":-0.5809718160385428},{"weights":[0.6174132549854783,2.0248355263861697,-0.30985370183772565,-0.5851336420233437,1.8101105952282794,0.2515339819825132,0.08131595022387955,-2.7080804949820125,-0.3730887659996174,-1.8462891090698883,0.8023131973595828,-0.3263037315865044,1.5483449078975715,-0.49368215090140416,0.5551542000720069,-1.9760983751953627,-0.2653815331036826,-0.7150008373752087,-0.3711163448732874,-0.4429571205808984],"value":-0.8352693538309746},{"weights":[1.459492437275961,-0.6752972896048774,0.5249971327934376,-0.0021105093125618098,1.2671842394350676,-2.1544627580416575,1.9583676818609521,0.22346703860301104,0.8614457201759247,0.5662291067761637,0.13930658853183553,1.753003011661718,-0.1936725262631074,1.7767619584085055,0.3385576441885445,1.9255318176699054,0.7683862546609795,1.1839096328404008,1.314638143500466,0.1721691584247291],"value":0.38840900305472087},{"weights":[0.4600365877139634,-1.0325175825793462,0.31478210821714503,1.4181532667407368,0.657696834971729,-0.9488858839491568,-1.4725042503130283,-0.11398126238448444,-0.10232249037327888,-0.6431173889242251,-1.0059385079829457,-1.397931212025915,-0.29940742792233904,1.032775328798575,-0.6542373648686989,1.8963563606496718,-0.9296385643891268,-0.523944730792341,0.2181757290524042,-0.7891844784285517],"value":-0.3117871488790053}],[{"weights":[-0.05320978330435919,-1.7930865499877913,-0.37398032367388856,1.092357065810159,-0.3704670092720066,-0.520268575635843,-1.9742664325010773,0.9438683638307847,0.32853866326482767,1.7447857599574785],"value":0.4273300857419497},{"weights":[1.5771225022741318,-2.3706313994837576,-0.3879840621310635,0.08197019772374511,0.4622396428622676,0.04291574399342603,-0.539256908219906,-0.14274538012515522,-0.5131064068433161,0.5222924531518527],"value":0.5669855999359426},{"weights":[-0.16642042287793535,-0.8639922834931215,-2.0814663909988127,0.19696847595590888,-1.178826634903746,0.037632490196315815,-0.40873163257306816,-2.642652601470071,0.21642688420044862,-0.45827231449787786],"value":0.7977621663342204},{"weights":[-0.0693013314037829,-0.12729795076915584,1.6812786588892734,0.7466502562308068,0.6897085335634934,-0.9454396778888294,-0.47303415578277286,-0.7511842536220723,3.6621032667053552,1.8604671009331013],"value":0.4757941327620063},{"weights":[1.1094130502455448,-1.962547396473272,0.5809363969090284,-0.39589268486151,0.3792690539226875,-0.12234502651112501,-0.36726194887670627,1.4481743797554725,0.7200869102490024,-0.045758785698649884],"value":0.2150161711360847}],[{"weights":[-0.45417454048495187,-3.949604357493966,2.7035133258746757,1.9493517982051844,-3.1457707168312963],"value":-0.024953412202286054},{"weights":[1.903058652658581,0.9393485186261578,-0.5690713481975445,4.738086723906101,-0.8406746172043794],"value":0.7478213616287566}]]},{"layers":[[{"weights":null,"value":10.8645484656316},{"weights":null,"value":11.815108369062886},{"weights":null,"value":14.920075258633716},{"weights":null,"value":24.197766957708193},{"weights":null,"value":11.31914625074842},{"weights":null,"value":154.5075372971741},{"weights":null,"value":71.76462432648879},{"weights":null,"value":125.68283807986613},{"weights":null,"value":61.1175495472083},{"weights":null,"value":67.81866063666943},{"weights":null,"value":1}],[{"weights":[0.46752792797092757,-0.6418992643688776,0.6951282965743681,-0.40821706473178,-0.47859297654478244,0.29926635554876974,1.4382189311952722,0.967248744625266,-1.4975690005474653,1.3900126061407825,-0.748203719266012],"value":0.996248824332018},{"weights":[-0.8095809778525698,0.09846588334720108,-0.6752227615116437,-2.10891819479253,-1.6922123745631912,-1.929881476993967,-0.4658610524456851,-0.765138852544663,1.1883588568255272,-0.12264554330735744,0.15343290307228352],"value":-0.9977886149109706},{"weights":[-0.9692083057461492,-0.12954376477584575,-0.002055024279373624,1.152011150190368,-0.28771530335011736,0.7308501407385257,-0.2529244899484494,-0.22941196243979928,0.6884864858363995,0.544037459997425,0.4099345840176611],"value":0.9937047636756384},{"weights":[-0.728783849406371,0.11780423438740599,0.6399983948234461,-2.055747783129309,-0.6926608969195155,-0.9202663075502463,1.607088365673667,0.33344563326767773,-0.8683315749842181,-0.4163134195619129,-0.017094952760063002],"value":-0.9917918987095377},{"weights":[-0.11044237374149615,0.6404232877005152,-0.4400539754982796,0.6736789581097887,-0.7602362542630314,-0.38447920425668014,0.8638641050272494,0.11537661512864307,1.6291904675501403,-0.5194605278345739,-0.6679083250901396],"value":0.988797192494838},{"weights":[0.27742289762117156,-3.4208333553383587,1.4210858735639955,-1.4248669682129245,2.9051058928103575,-1.195682620878084,-0.8279884767756914,1.3092913954319967,-0.18924443396995952,-0.2188145745530118,-0.7540574349203654],"value":-0.9920358539499798},{"weights":[0.17299389661260256,-0.362922529415501,-0.7773085834882717,-0.8491820391437206,-0.5971280055059995,-0.3398023876087374,-0.2212253767618902,1.0487215186022318,-0.5360104539526493,-0.32985700804576334,0.12823740098186745],"value":-0.9704901734463023},{"weights":[-0.22023112368050032,0.23653757426332717,0.8438384407636479,0.004139174932881656,2.3263153219010784,0.8985102209652548,-1.8999216476853618,-0.24964879723918476,-1.5161470164050956,3.158769083039586,-1.079914386903787],"value":0.9924246701465346},{"weights":[-1.268800165091446,1.2582250595015587,0.29907187578790373,-1.7831404838710172,0.49913347565711996,1.2235339389498427,-1.3728150058372253,-1.0164822860445388,-2.8543638705268854,1.3535197915682424,1.8927280219711602],"value":-0.9933752357406033},{"weights":[-0.46610432576203586,-0.28771545286693373,1.2333520828282714,0.5834065333770114,0.5444670264113651,-0.9974548180151627,-1.9723058345649935,-0.18158444642794783,-1.080780738837953,0.7771783359948692,-0.3443798320112116],"value":-0.9966991431248925},{"weights":[-0.25461166592239504,1.577113247914234,0.34382198180096596,0.3251591458568716,-0.0036069431649571743,0.2920341216671627,1.6948338196615473,-0.6400160171052354,-0.7548556836323642,-0.7764484570737954,-0.25129898616826796],"value":0.9414941351738547},{"weights":[-0.49772524343634117,-0.928791669342288,0.21002026019464667,-1.4204483551686358,-0.17469893611718926,1.3809166352927167,0.3861558844696614,0.08792190079645278,-0.7745564484647857,-0.1442425391133274,1.3226500784239024],"value":0.9932308492684199},{"weights":[-3.1420800716067196,-0.8132848336104236,-1.2058699322577386,0.14090648193606664,1.5528554888692463,0.34745608424470953,-0.48637420982621066,-0.27570035167620355,-0.3541663165022271,0.14996271332787875,2.5688137721434146],"value":-0.9849689052531511},{"weights":[-2.0512953575794723,-0.4503684219821371,-0.053209376986250306,-1.4499516805456334,0.27200755669539667,-1.1145385187407375,-0.6296408265516379,3.039053628301795,0.8546958682759824,-0.3210956401398029,-1.0716058035051732],"value":0.9925676664160906},{"weights":[-1.090802562596752,0.06335343920243983,0.28745147938782856,1.0159735540589798,0.25965541473872317,0.36403465488565667,-0.8698883883276225,-1.546925756099054,-1.3465340634777059,-0.685797224567938,0.9594822517276022],"value":-0.9967610365337091},{"weights":[-0.8637522403938809,-0.014243277242741728,2.5344814083975247,-1.0986035825024754,2.4736023672627123,0.6665366937878241,-0.424163131569314,1.2828273989416754,-0.679135264449571,-0.7477696728132931,-0.3625641475351407],"value":0.9941816300122517},{"weights":[-1.9148733732692387,-0.6488173078153281,0.17772136234870164,-0.46963984330770303,0.8071814393003881,-1.9730979552544703,-0.7346414676747002,2.778766935753941,-0.5491883588696501,-0.2663687099008381,1.0146947961927415],"value":-0.9886360636642507},{"weights":[0.024658271146906816,-0.2968266730920477,-0.4330331906761318,-1.074622958621096,1.1110308990360451,1.1294800217082388,0.6267684119405095,-0.08966372602320984,-0.34745017379686605,-0.09740228626119626,0.3416474897315547],"value":0.9936947047484784},{"weights":[0.041502955764355975,1.0289560777658018,0.10564294935090461,-0.150464239219816,0.5862934558727835,-1.0089505374239927,-0.6774627898923363,0.9934150172748469,1.0188509952820513,0.23050355932080083,-1.2548126648303946],"value":0.9340977185880645},{"weights":[0.6323500532190865,-0.5290270689621983,-1.5183105626182498,-0.9172098563893127,0.6418188291033678,2.8328878301323748,-2.720047349141001,0.4672575882999867,-1.3923566509338463,2.4660879734800045,0.41923870571704425],"value":0.9971250405247345}],[{"weights":[1.0175497701483565,0.9140991069100574,0.2380384590990298,2.0765319406215266,0.8023239680665107,-0.953376500128484,-0.6248774424446869,-0.44136690855385086,-0.5881597349941278,1.5675633717987472,-1.7694856698155779,-0.6482207467091522,1.1987627258305729,-0.6041734828330452,-1.1713872522412325,-0.024705913741209687,-0.010879223030450413,-0.9446929106643397,0.25876759896614066,0.28746375023951876],"value":-0.8053983822406524},{"weights":[1.2126067153734843,1.2441768621054077,-1.6170203195289645,0.13541185620116886,-0.769188462838182,0.6354615159209448,0.17503440982245175,-0.9883275552779041,0.9235217557158306,-0.24836379151908775,-0.8577930282159524,-0.06971897801870798,-2.2699955393510707,2.380881547284608,0.015589826872948138,-0.3565496350166782,-1.639883778691394,0.7904440127208662,-0.03496663194382217,-0.3073007480918165],"value":0.3025385911477134},{"weights":[-0.12157531396598259,2.1965118516522555,-0.5805560780082109,-0.16000775437104145,-0.003759921866767652,-1.6098966800791334,0.9183800670443439,-1.320192648243039,-1.1688423795765783,-0.7839266762370152,0.756815826410259,-0.8212473858071703,0.9256389037953695,-1.4766473796863189,0.8820165328051456,0.28597072993698613,1.3442857110325663,2.169514727327184,0.25571592284461575,1.0045543424811112],"value":-0.706288476149415},{"weights":[1.558760892390937,0.23646681131469438,-0.3342639531234809,-0.868551823363334,1.3238252205617733,1.1653142622989123,-1.7438704344855476,0.3297508662497887,-0.6071849011530338,-1.9228344289257475,-0.14443432860626915,-1.9295193492373892,-0.702177934801045,0.222998813032723,1.0906606541797514,-2.8546962514663567,-1.3977269753080677,-2.595423518419452,-0.36816781816856764,-1.9263639991028563],"value":-0.6653427612020895},{"weights":[-0.232337461526077,0.46110086070450196,2.7487617566080607,0.9090508212409455,1.1099103091340365,0.530707049921606,-0.37423503294354227,-0.9134149111461872,-0.9230639778197393,0.32647826477087943,1.9327544357200215,0.591271543639916,-0.14510802475659787,-1.5291038293140458,1.1459650598802966,0.26081275401789517,-0.4589375414456309,-0.42336126442457594,-0.7444989705445895,-0.03675716918824801],"value":0.5470360636831875},{"weights":[-1.2282578415460126,2.4485833797945187,-0.3845912668902369,2.091153950698384,-1.5781377192760992,1.3489137439700822,0.3953911638882891,0.34986406246242907,2.6201473162125977,-0.11040434423969779,-2.991425942659735,-2.080019182224196,2.108499660091461,-0.7525862931390623,0.2484578499924034,0.7942012923569185,-1.7283942158365493,1.476850443194564,-1.4882638117048448,1.5876149276965539],"value":-0.9388226919195355},{"weights":[0.5612119948721787,0.25553120386971484,-0.29100078588933065,0.14018905847707025,-1.4209731133189458,-0.8732982462403561,0.09174176158715919,0.703992472034142,-0.2139916797015361,1.0115867578747406,0.5582214938415471,0.4035218451424754,-0.47245056436199445,-0.41551517701218044,-2.2049064370013864,-1.906298527824593,1.0136789621403628,-1.8637945856737557,-1.214499682599942,2.474475962242781],"value":-0.5211405475172494},{"weights":[0.8784082918404226,1.9482642235022112,-0.16003631543143948,-0.8223890293649503,1.9035206101494202,0.4560720801515963,-0.1730025545368753,-2.6768361544110713,-0.34168346481476797,-1.4772026803686709,0.8735000509405614,-0.27983629781224295,1.5869245573907167,-0.8614538424881287,0.34943865113183936,-1.83252748937831,-0.3766718875531014,-1.065700311703056,-0.3501770740148431,-0.6100996899875607],"value":-0.8419039123686363},{"weights":[1.3131218712656227,-0.46943444421360325,0.4708517092690096,-0.21062439729244836,1.3910584300736089,-1.916000045376967,1.814356413354183,0.20588778854985196,0.7590437516267928,0.3219726001425172,0.1680272996238705,1.731807015781617,-0.14873766826611437,1.835709280217134,0.14407400674604964,1.8861770745031767,0.8168355547929947,1.0026387675027393,1.3072596964914,0.009514199500412032],"value":0.9098772843774854},{"weights":[0.4928226589883222,-0.9921881071677834,0.24489208704635934,1.273931029061994,0.623603772155203,-0.8261607104565726,-1.4856383219898117,-0.2874370356926709,0.22082567930611224,-0.9270400194911317,-0.7946218852069219,-1.318900210328088,-0.46034161313887634,1.2517625312935428,-0.9072848122966584,1.9400584284301212,-0.8332918767913087,-0.7477177191008906,-0.1508941918689246,-0.7043893364091742],"value":0.8453591430230475}],[{"weights":[-0.2690116421382007,-1.8092508533741436,-0.5877218626943084,1.0972176772895523,-0.5003039856087045,-0.6901918600717061,-2.0904834046268936,0.6546314371148004,0.29683301983383775,1.7044207276591843],"value":0.6641906660568617},{"weights":[1.9199003426467538,-2.3303483351857226,-0.579132876007,-0.15259561664137772,0.49077762657627877,-0.1985150136780457,-0.581546637591734,-0.14019372227953122,-0.5855327470757183,0.44772085039773857],"value":-0.5047246939721336},{"weights":[-0.001403197940150397,-0.5745907237656294,-2.1263551410198143,0.10036314773617402,-1.3358073167143711,0.02948283725097707,-0.28696976429400134,-2.756768843232282,0.12489194715390997,-0.384015459616544],"value":0.7342839584286325},{"weights":[0.0395509561840566,0.018819985249855432,1.597572170107607,0.7721568013906711,0.7089580480889138,-0.80073678686188,-0.4697043266708927,-0.9408097035619194,3.449770022836411,2.069992101738261],"value":0.8436749321897039},{"weights":[0.8416453118003353,-2.07512956532262,0.5863461462909869,-0.18498967179852494,0.4741863174429948,-0.24035153796032693,-0.24721271577267087,1.204421512047065,0.7871784384658035,0.1144704880842234],"value":-0.5420910375838327}],[{"weights":[-0.15216044647485877,-4.204063116645642,2.7327969175874802,1.7189593993362948,-3.1422391102764218],"value":0.8777670854080079},{"weights":[2.092439626674523,0.687577980012192,-0.567633726079645,4.417993659274441,-0.7166635587492324],"value":0.8258381121239301}]]},{"layers":[[{"weights":null,"value":91.40249810403827},{"weights":null,"value":89.61353935917323},{"weights":null,"value":11.173298225732065},{"weights":null,"value":10.852447787849268},{"weights":null,"value":86.06312066380646},{"weights":null,"value":91.77116397481022},{"weights":null,"value":78.2739356324016},{"weights":null,"value":13.237248890187427},{"weights":null,"value":77.28186464823253},{"weights":null,"value":100.66214567906192},{"weights":null,"value":1}],[{"weights":[0.9503664884563039,-0.6943968854364398,0.7254962064505283,-1.1234536694857555,-0.9231856970245973,0.34656260166704655,1.7752375981470174,1.0286963544668273,-1.9540076026593425,1.8142521831780323,-0.9982073445633449],"value":0.9936344487476997},{"weights":[-0.901975655260421,0.5874934289301748,-0.8292505391117905,-2.627212964233573,-2.2430471715243017,-2.39962303919578,-0.6340687182987553,-0.8174524834568926,1.37607484669007,-0.18052297508848472,0.10327216084851334],"value":-0.9977973920520571},{"weights":[-1.3806310923187723,-0.28652499417161087,-0.4249489043795058,1.4052044709208267,0.03037260391596635,0.8179976174039352,-0.26948920389694264,-0.3549002948463253,1.0708889384843192,0.5720000739223595,0.7365405654893356],"value":0.980988028371745},{"weights":[-1.0197590075840832,-0.37096902770146456,0.9276076127188482,-2.908194253948134,-0.9047252146743013,-1.3915577149039717,1.8422042289417333,0.40619934378773254,-1.434644149036651,-0.30665512389596006,0.17400048677909077],"value":-0.9971115822203552},{"weights":[0.158753106733812,1.1047031413612909,-0.5517181574700365,0.7527215826187503,-0.9435744719342541,-0.8411639451470609,0.9015906019835612,-0.05790347847679789,1.8299833894269406,-0.40985077301650297,-0.6687070942508175],"value":0.9921515391157977},{"weights":[0.7466773299156106,-4.677726956010924,1.7327795778452346,-2.04556340867327,4.16390424557894,-1.051291615432715,-1.541009020086344,1.7219716709058401,-0.4995525386584915,-0.21958480187093507,-0.7100265786753539],"value":-0.9960340216391893},{"weights":[-0.1664671019020651,-0.2909432333070426,-1.0945352941583295,-1.6808575875042833,-0.6854974818938964,-0.22242702828622563,-0.23168376255915082,1.468739380769661,-0.899313191302053,-0.36389843059643295,-0.2457277675318656],"value":-0.9961125380763507},{"weights":[-0.4974882808387183,0.7081351622732077,1.094877009809152,-0.15635103793962812,2.5101048036547127,0.881613172236909,-2.12433127922053,-0.6620296471016593,-2.0342350288522666,3.9419366020379347,-1.6206315849647275],"value":0.9974318675077334},{"weights":[-1.2788097024156646,1.3912517528390635,0.5277779975279754,-1.8598460094288585,0.628398559141097,1.3496361619002621,-1.4703799541863096,-0.9912202327822991,-3.639451702594286,1.6371438879597158,2.0114443622183815],"value":-0.9861545423264446},{"weights":[-1.0095450205018806,0.06557375405612398,1.6235561323469818,0.786793807412497,0.4370553827458399,-1.74185410939708,-2.2575252625296183,-0.4838400248946882,-0.9070093446817598,0.5307979242039196,-0.02750772071622127],"value":-0.9973873891238947},{"weights":[-0.46044565312390706,1.6372391778468052,0.7826436951715019,0.17118239205953723,-0.43218568717947786,0.3236877483754299,2.406168965281116,-1.102592879522382,-0.4287417794619376,-0.6003732822825149,-0.48177041829203904],"value":0.994693263953745},{"weights":[-0.7447548397437161,-1.1445846419471373,0.2373724271192676,-1.54963567279913,-0.8989649830267982,1.9021154240543825,0.3880009045399148,-0.14958496218958575,-1.0990954639232808,-0.2702198875593939,2.063426257154491],"value":-0.9941281333898928},{"weights":[-3.795778631059465,-1.307697412613708,-1.5609851375142103,0.21071476642587683,2.5405599474228264,0.10303242822820748,-0.7937889243652898,-0.5613253557765476,-1.0088754613343305,0.6219023699063985,3.1024102790569783],"value":-0.9970060635644059},{"weights":[-2.589188187041468,-0.7685228456861072,0.08189293327394678,-1.8378636326623747,0.24619713484176034,-1.1211183271452954,-0.808523847633975,4.131175765120146,1.4012678577480944,-0.2766463393907486,-1.7281545349149188],"value":-0.9970338800591637},{"weights":[-1.538105092336044,0.19604655689551337,0.023169536793624296,1.5719750520589417,0.19654988798917,0.9105005121027598,-1.1229765018312026,-1.5359713861386044,-1.8516549700249383,-0.8906776824805084,1.1794114980888744],"value":-0.9971101228099098},{"weights":[-0.7983875539430889,0.2739975018490076,2.9195387159392183,-1.415232548556368,3.4956588223230067,1.3685916519437533,-0.2430775300910713,1.6591674712443039,-0.35993234469193097,-0.9981615432863178,-0.5583092409671974],"value":0.996301371739346},{"weights":[-2.8316541441240264,-0.4736560269295834,0.7115162296628414,-0.7571794740147679,1.1021897640570928,-2.493789162474691,-0.9130051800037423,3.955771048802324,-0.5347363289832121,0.053322842342312854,1.0407147111547754],"value":-0.9979614787307939},{"weights":[0.31558930869457946,-0.07817335613761286,-1.0054203752961357,-1.730157806964251,1.6274389087280943,1.2698438374309935,0.7971775048541777,-0.28579070335533924,-0.4642209154110695,0.10260961708079433,0.5104131727447465],"value":0.9964665068442587},{"weights":[0.22637211268440957,1.1248293397330091,-0.2194568501935816,-0.761407866140797,0.6482670152414096,-1.2213125227566424,-0.5666545999066213,1.1400812611561062,0.9231674281099618,0.1506161032542691,-1.6945258467205135],"value":0.9909937900369739},{"weights":[1.3390452205437966,-0.2534850507238174,-2.4018641067551605,-1.012144298860942,0.887589593698196,3.867964716222187,-3.3750363042359752,0.6925469725920528,-2.0641284226318932,3.1601173490109002,0.6017111855090242],"value":0.9974898842714898}],[{"weights":[1.0856696147376468,1.4805097755935905,0.3851524753952928,3.040111064874724,1.3420256776206072,-1.0250010138430827,-1.2027448362656077,-0.7201256221421293,-0.6714464787856432,1.9093010928870533,-2.3969843249910694,-0.48816921916992356,2.025250737125808,-1.1212737269732636,-1.2437214053154058,-0.2410995290684082,0.3925069188622129,-1.4721502306593162,-0.017180729929170885,0.24597696230386693],"value":-0.8302937302966379},{"weights":[1.4501235268470138,1.824260661122436,-1.789686090065453,-0.2911494580758973,-0.9454608167687427,0.8257049581363549,0.02078525696446229,-1.5423039195968542,0.7226177716989813,-0.3303927108332352,-1.1243967448390082,-0.04992932096559573,-3.596913191941587,3.049836214461911,0.17905317698452083,-0.5008274346109496,-2.5411319180327405,0.9928839473632308,0.11655487751859223,-0.15680580965319751],"value":-0.7654692600895902},{"weights":[-0.13166097520911263,3.18286823304131,-0.7076520452081925,-0.21134601881129428,0.08106968284173387,-2.128931719003495,1.168846061967444,-1.7730969086092623,-1.1572281798941395,-1.2647050853524195,0.6236113238065181,-1.2617788883109502,1.0255619212559033,-1.628320652860198,1.1938974776200397,0.7868714349511116,1.4919052575348848,2.656473611923276,0.5912273677454943,1.0116501587194882],"value":0.729945876725405},{"weights":[1.6076812198592412,0.13234169796857082,-0.12291166873782089,-0.6269089364253951,2.01636352430636,1.428052664560461,-2.772652174281783,0.6628189112292346,-0.546131520568253,-1.9760993195808043,-0.021674848431010113,-3.275548868596586,-0.9974545588471871,-0.07075378470169427,1.5762794079667841,-3.6147345359280725,-1.509238501546053,-2.970683464638359,0.07472570809657304,-2.244091270725085],"value":0.7995515870846616},{"weights":[-0.7581196346926409,0.5371902238307633,3.487723263505472,0.8565891866910792,2.007407761312537,0.8383880706798256,-0.43563033777403093,-1.0237041717074027,-1.1112162281780806,0.12549952640787945,2.30669224142634,1.157896083857323,-0.011395628283994846,-2.0859613478420096,1.1734081147479947,-0.15123281030345836,-0.4499628999687143,-0.01770668775732301,-0.7701176771806517,0.5027590067669054],"value":0.8305551595402902},{"weights":[-1.3197372461454964,2.9182274026241393,-1.1732348432396464,2.331828707503613,-1.8436998636589519,2.3326091308763623,0.009510485972354571,-0.23811828612708186,3.3647487475445357,0.024830320617361068,-3.6300329497314134,-2.3733834902315243,2.741374904307584,-0.84852792198457,0.3926845761370066,0.7968418129382737,-2.4054093630039906,2.0061067882523163,-1.9024748664932363,2.1223922404347624],"value":-0.9312551297382695},{"weights":[0.9637087105630068,0.3351401310240691,-0.42081980571820576,0.005585859254009937,-1.6584435425829638,-1.3908041206581052,-0.06290314767123684,0.5028012326303772,-0.5184095596962853,1.3784497133750715,1.2890361966309343,0.33377722341444027,-0.4843078314194458,-0.6892408972694258,-2.632252117391896,-2.2606861705236954,1.3059153281791258,-2.380991087704821,-2.339301720333063,2.612821121650324],"value":-0.5555263893041138},{"weights":[0.8011006540229735,2.3935755883606666,0.15722751212999891,-0.6601080415561369,2.190396360336945,0.37052593690209135,-0.3286178501148815,-3.7838561433755182,-0.6937895240114944,-2.154723257493139,1.4208206126787348,-0.09258770725740309,2.001389665124929,-0.943887135267559,0.8380922674493165,-2.8423809745833766,-0.5445341216357201,-1.1640652804223022,-0.3261781595793013,-0.9289926386976537],"value":-0.8237011834696534},{"weights":[1.2790553202414214,-0.909659349129781,1.0173843346377685,-0.18365601267162696,2.074220732917049,-2.98615013039415,2.9096040209755176,-0.12372467957818173,1.2998856577053697,0.3576814019171198,-0.1947050734373759,2.1199555136393466,-0.34984505041766745,2.2171627172239505,0.4721257739969413,2.162164006668631,1.0568506542211868,1.8220135407038776,1.7934509201958302,-0.1184350130026672],"value":0.7859647570489495},{"weights":[1.1261212006820798,-0.9442027252265686,0.6634477526577798,1.5419590384643787,1.2342478894468571,-1.646856251768201,-2.290910409844485,-0.18329049061725777,-0.12749990635564973,-1.0288225168535299,-1.516246460172606,-1.85153264901438,-0.22242583464797994,1.246419934815613,-1.3964758805785948,2.2717354495453184,-1.5407443254741913,-1.102324265596506,-0.15826349482009888,-1.2812418908587149],"value":0.9025524057669088}],[{"weights":[-0.026717264709845923,-2.467976632183951,-0.5141603842551307,1.8597399481734855,-0.7589839691966088,-0.9506233430089138,-2.460736076759987,0.8453226493498684,0.15882887040333787,2.528016800389473],"value":0.8640399014693751},{"weights":[2.186363277556633,-3.0197296136178893,-0.7793291677253212,-0.01293076800191606,0.7847970797594014,-0.18353323102886096,-0.4770140718818619,-0.09159270985515158,-0.39435717784988966,0.8468661262747779],"value":0.6054514324446131},{"weights":[0.19855802355662017,-0.7934887477281142,-2.616709729848288,0.1402711008391889,-1.7018875039636463,0.21788826808485393,-0.5858346964776615,-3.923242661160145,0.1421499077191955,-0.4748111244906229],"value":0.211614745688015},{"weights":[0.00574208252564698,-0.05845705825170104,1.723144571041769,1.0130207392730406,0.9864974592349136,-0.9335983657937942,-0.5675352175346886,-0.467862280760632,4.82347098667292,2.9977017751641615],"value":0.9166237526207432},{"weights":[1.0530148124631011,-2.8872246392223615,0.6281258612362756,-0.5929167002564151,0.25732832649957743,-0.17070960442628647,-0.6106243054134136,1.8447815010538926,0.936626235543035,0.0814196733137481],"value":0.5693757264162913}],[{"weights":[-0.30719628581758757,-5.6823794397583915,3.543861889215362,2.4089105797329746,-4.362698067196675],"value":-0.7636967793851859},{"weights":[2.2985498436610383,1.144192253405956,-0.703363063324051,6.236816223285918,-1.0525500686848008],"value":0.8843592009435928}]]},{"layers":[[{"weights":null,"value":12.08542114995725},{"weights":null,"value":11.433173670171676},{"weights":null,"value":12.249544329185197},{"weights":null,"value":15.1606730793608},{"weights":null,"value":14.696441496480057},{"weights":null,"value":81.25724279618352},{"weights":null,"value":71.78647477267138},{"weights":null,"value":35.22150845351518},{"weights":null,"value":72.45228811961604},{"weights":null,"value":76.37123147554951},{"weights":null,"value":1}],[{"weights":[0.7890332249056011,-0.7848704714764104,0.8759241801775395,-1.0648858713837264,-0.5831977724470707,0.48268218946715535,1.601547666504449,1.013978251402556,-1.7681251713060668,1.82198965538321,-1.279835947167864],"value":0.9946593853149073},{"weights":[-0.641593721011231,0.3812625749674376,-0.7000240482539194,-2.3662584410321004,-2.0450361590507216,-2.4712440820379125,-0.7446944864091876,-0.7186757542664693,1.1803541051222364,0.08489173346030862,0.046268721759596745],"value":-0.9962466420882963},{"weights":[-1.3480963344803238,-0.07613287678278566,-0.2412825227100348,1.5931015577249537,0.06309183331305389,0.958590101621634,-0.38516811798528017,-0.2131440020233977,0.9280732549631062,0.6976899963958483,0.928023841415654],"value":0.9941228029826298},{"weights":[-0.7199342697642446,-0.3050205602779452,0.971925058532348,-2.7309614982404664,-0.7372788862111181,-1.131863560131211,2.026200132751785,0.6034140274529356,-1.648881100273859,-0.0799314822686263,0.2706357617475574],"value":-0.9903924904887309},{"weights":[0.028752724612193012,1.1410705521904678,-0.6726331707123121,0.5518536769374006,-0.8705381314247873,-0.613809474739424,0.969912033562711,0.20761562868516065,1.7739509720289075,-0.4023224025632195,-0.8843116295538644],"value":0.9920449321960977},{"weights":[0.5794486502039177,-4.6712867852687125,1.5803654979199462,-2.0891488784265038,4.1526828132390605,-1.0975945187231342,-1.1818437429148205,1.8597462301513374,-0.20715818456956503,-0.08294078347631981,-0.697858624951493],"value":-0.9922633735589579},{"weights":[-0.2871575895059004,-0.3063064427677109,-1.001684540244568,-1.5474852112770174,-0.7427056053799796,0.022505864829437797,-0.04507849046408191,1.148201652228607,-1.0626244283533928,-0.4827104146496215,-0.0028381486962813784],"value":-0.992274542166463},{"weights":[-0.20821086415859122,1.0113288918758974,1.1485722989753135,-0.282337252543919,2.453667599410954,0.8918617923117614,-2.2560814264730524,-0.5257637199207674,-2.100204285030647,3.7441067376729817,-1.5869115314881066],"value":0.9875128088968732},{"weights":[-1.3802652158108097,1.5367908978610048,0.501759375080095,-1.9135875503960105,0.9193698786039003,1.558324989353832,-1.6859405406501486,-0.8246717629318072,-3.753507393566328,1.8002920295302889,2.210609882923612],"value":-0.9939453372186784},{"weights":[-0.9222749217465472,0.08920825518313855,1.7832986588465036,0.6481467652321586,0.33666547950904474,-1.8680471455835568,-2.319621809359541,-0.4631448285660298,-0.8685469349503658,0.776889316132623,0.05079195429619926],"value":-0.99680179452737},{"weights":[-0.571587330542999,1.74548049651238,0.7181435329155164,0.3844243921940572,-0.34300451899926504,0.6761838718436832,2.065503573974233,-1.0418565599056921,-0.653714676657739,-0.6053225874113216,-0.6245468043399117],"value":0.9895768211316497},{"weights":[-0.7746021545467107,-0.9658801178864538,0.2170866386655834,-1.7187640896252092,-0.7532535049094851,1.928845688707873,0.33990030287462725,-0.20814623742033514,-1.0999553477624353,-0.5069843834685854,2.2072886912817493],"value":0.7313752517626615},{"weights":[-4.045752813954327,-1.5256689162311996,-1.7791711153963221,0.1660218123356514,2.564786159690707,0.05328251459569383,-0.823933867108393,-0.6775261325038636,-1.0137394615028643,0.4243680923073919,3.1870077196502264],"value":-0.9939560276672212},{"weights":[-2.401687367605247,-0.8679036513113401,0.18435152786783143,-1.531764013818731,0.2674101351374314,-1.1547590218939134,-0.5929093429746225,4.317557485712093,1.3210294170828343,-0.5141390433779144,-1.6101769466841038],"value":0.9356035505933976},{"weights":[-1.664159824264398,0.21786032891968501,0.0015369778685720425,1.3138638332487327,0.1101518210851341,1.1133841572883607,-1.2011792061131823,-1.7593789288400121,-1.6949925684300555,-0.9385327739711371,1.2071629239072499],"value":-0.995968818241054},{"weights":[-1.0218607568253164,0.13764677802697453,2.9192025818403065,-1.245554260508068,3.4489907006132356,1.232987038590443,-0.46563434753158317,1.7173476910588672,-0.4698109351584093,-0.9949416293112842,-0.6876815281265157],"value":0.9865458395605936},{"weights":[-2.830155547886431,-0.3847267466424936,0.8581826072608647,-0.7106444140734847,0.9657795934059504,-2.678361010348065,-0.8449761282379794,4.041121062334332,-0.34682013845210813,-0.08617311893998897,0.8133927858252895],"value":-0.994805886193632},{"weights":[0.17620481332218194,-0.3647318093852723,-0.765449543452842,-1.5740364476853843,1.5701879381513515,1.4537621162962422,0.5537384989421504,-0.11096162516623354,-0.5774641777704207,-0.10222071739162063,0.5289857492553798],"value":0.9893220397790692},{"weights":[-0.0006978378739611324,1.0948345922657194,-0.0969197104244855,-0.823221296991276,0.6944265038402215,-1.2754802664615257,-0.4848820951748558,1.1665317372255648,1.208023339832002,0.40714276502764446,-1.5819036234170205],"value":0.9663525734009377},{"weights":[1.0686613814716956,-0.30593019072801064,-2.505775538843799,-0.9838052329595601,1.094207274558269,3.9743130992482554,-3.4024664642542612,0.7660983309628496,-2.2696028602326157,3.1025504705479663,0.4307749086122049],"value":0.9937304432937363}],[{"weights":[0.8958887744105444,1.3520472155775587,0.5058041821449255,2.7975324951231646,1.0997340241673317,-0.9987312975800707,-1.0115983446423829,-0.6081024778516344,-0.6940898363084088,2.071774546805816,-2.2120631608880874,-0.4555983909851155,1.9972064415622328,-0.8476137679655543,-1.3102677594601635,0.09129553868425316,0.34619405377835166,-1.4735025154593766,-0.15930935293748005,0.2539268682944627],"value":-0.8783869245950964},{"weights":[1.352751251293577,1.8172189668685494,-1.9998902303572068,-0.1375312621358557,-0.9965923612852865,0.5110471767561096,0.1437765257423066,-1.497729221839506,0.9271032402061098,-0.36795120988265806,-1.0493274300095181,-0.2021706674972144,-3.441793058656865,2.789870577234587,0.19537349957396954,-0.817407211687569,-2.210935398227083,0.9690486239787088,0.08277817531522144,-0.25500440493290494],"value":0.4564423959786333},{"weights":[-0.3272604682895856,3.020450668475471,-0.6013832427429124,-0.052986169446413184,0.20715988322384782,-2.2004100978331484,1.1592203817864088,-1.7638015573459218,-1.1935812913991963,-0.9946256018956814,0.8023594721952719,-1.026389247091068,0.9649771368650863,-1.8289536501917858,1.1829953887215676,0.6770773541678093,1.4461600813738023,2.5718947462585424,0.3364121718362043,0.9417477871435466],"value":-0.7484834125581845},{"weights":[1.5658820485843736,-0.10774564942992798,-0.1608335998511544,-0.3473379693745713,1.9805651765653658,1.3473822488726677,-2.7592843654671517,0.749636955740738,-0.6546668559244067,-2.281966681161189,-0.2718818834072401,-3.118546085754525,-0.9722198038546911,-0.079197452620584,1.4716874167057181,-3.6704318106140352,-1.479544643867769,-3.244535926277208,0.09125542639396027,-2.0881059734667997],"value":-0.6137286876233323},{"weights":[-0.6134444712843673,0.6736063401176885,3.4728552450365187,0.6896859689608381,1.8607565017257937,0.8872350672623187,-0.7540903942273104,-1.0389526220415133,-1.190891512777277,0.22359104790245754,2.225250274325617,0.9794992328265951,0.2578747637567135,-1.758062908172266,0.9716234323724379,0.11888577825337379,-0.38924021945641757,0.0777232638116141,-0.8328845904626677,0.4103753609423863],"value":0.7712046228513919},{"weights":[-1.2309521026923935,3.058143533520622,-1.3079160389031905,2.16090285156524,-1.6526518533919412,2.2525987235156975,0.23249514459747173,-0.1566838714675193,3.660877069920894,-0.09720569997098272,-3.609370995084544,-2.374417596631082,2.4870546931490662,-0.5790821550571384,0.4005231438701718,0.5574075751232164,-2.375209097381989,2.0906396536971075,-1.7535024638711654,2.2789117051963346],"value":-0.9491951971441579},{"weights":[0.7933064349542507,0.3368303210921797,-0.624997992426112,0.07973825125416516,-1.8645590694391208,-1.3480188785958214,-0.12312928696765446,0.47246108020250455,-0.43697846409630337,1.4547934803841052,1.1555061822585306,0.3062796677431285,-0.501956733513709,-0.8257485492547336,-2.9425417330305166,-2.1211857059231582,1.2119705336471587,-2.420040340669744,-2.2372984336051016,2.5927884440924056],"value":-0.709260867231409},{"weights":[0.6713583651138477,2.0145704577407746,0.04596296475203836,-0.7773066832210679,2.2316488435175432,0.4446304721123373,-0.33179630040757363,-3.84249677598791,-0.6516308736882233,-2.364856406594245,1.3702282250014293,0.048766390981632074,1.7998133966413097,-1.0077020475700718,0.6334773385700085,-2.6348483930576174,-0.7924025831909467,-1.3392674864729373,-0.4164908794580351,-1.022962369982526],"value":-0.851576182516108},{"weights":[1.3303144602546524,-0.7384337671133887,0.8334382010037965,0.0671635563061384,1.776179641687268,-3.0281817426192825,2.6077369574626617,0.06848129513002528,1.3390797924008355,0.3645516272745395,-0.1826677755926676,1.9493203869464057,-0.6073556232243316,1.9024254330709096,0.5031757030440042,2.433709392919303,1.0122483076362623,1.8665454319797323,1.581440711192266,0.023968746837031894],"value":0.9186554507364861},{"weights":[1.1500426321410526,-0.8755286698001665,0.6868708599480198,1.6613321115207096,1.2638904823614712,-1.6006749409610108,-1.9799209457013054,-0.035637937335196365,-0.14107669116081922,-0.9197419315980865,-1.1460880144708334,-1.8353109813797264,-0.5834805011281509,1.2025475563330181,-1.1312359387682815,2.426647149224545,-1.3668007076135509,-0.8825470031093784,-0.43177681274722934,-1.317416559667814],"value":0.8935224861896517}],[{"weights":[0.031648559502194876,-2.535221920126023,-0.5337153321739891,1.6272576654818134,-0.47743752019509966,-0.6274246748874424,-2.551312267038972,1.1186222789565345,0.11861574692259494,2.635841825773067],"value":0.638238375017696},{"weights":[2.2035542437021047,-2.780907787631859,-0.6761111070451148,0.3164396487014527,0.8223563880766497,0.042552907643907525,-0.5839074627876584,-0.11873667235720639,-0.7341469044125764,0.5709857477475117],"value":-0.6608119384650127},{"weights":[0.23920324467969306,-0.76852242294923,-2.8022181000048874,0.03023912399534224,-1.3925198958377194,0.15910000062104715,-0.771698205645593,-3.833546496133906,0.13209838499306442,-0.48280472652520845],"value":0.7914437479855089},{"weights":[0.17157191247756032,-0.05915269541306735,1.945554672336673,0.9473658722458833,0.9560185287755307,-1.2082643180389476,-0.7114674122773246,-0.5133187334541753,4.613913580985415,2.7707812767082296],"value":0.8798786605828186},{"weights":[1.0099475031495169,-2.741307091042472,0.5958017263727005,-0.6410456852653137,0.426289277487633,-0.2744516195678913,-0.3580937774376156,1.9767774911752465,0.9913983192278403,0.18907543456477816],"value":-0.661169333819505}],[{"weights":[-0.24855152566429714,-5.36657265165195,3.4215374503912397,2.2337974605849715,-4.0676994245687075],"value":0.9148974079974767},{"weights":[2.6030383371361316,1.0770358817128722,-0.4005223052871224,6.316502413040941,-1.0643520516577971],"value":0.8733234763479004}]]},{"layers":[[{"weights":null,"value":13.111481457288232},{"weights":null,"value":17.027398563623574},{"weights":null,"value":29.32108231282363},{"weights":null,"value":79.50268177089684},{"weights":null,"value":11.818931689534041},{"weights":null,"value":12.085207961466299},{"weights":null,"value":14.104136022760542},{"weights":null,"value":219.0832955280234},{"weights":null,"value":26.43006907901243},{"weights":null,"value":69.35857375587638},{"weights":null,"value":1}],[{"weights":[0.7012080518009536,-0.5595269030568284,0.30774838362593515,0.18244839494251242,-0.8559987225433066,-0.2106199560257802,-0.8413380652929319,0.8606213623916203,0.6282408629106246,0.6084046248680806,0.4636842373876964],"value":0.9959592774887356},{"weights":[-0.24834535406191183,-0.8488884491533306,0.9149576485971664,0.5922682709271476,0.9052226068904128,-0.8679835414920714,-0.5967603170771847,0.13193123378640514,-0.558180425361138,0.46479155408647843,0.08816290714976294],"value":0.9895258087767612},{"weights":[-0.24133221696421492,-0.31173188769860083,-0.43053282622171185,0.9674479767280988,-0.8022678694759158,-0.31819851149645295,0.6016970901337424,-0.5424316815880244,0.6469691147591701,0.341885391262303,-0.603294778811617],"value":-0.9650973336377796},{"weights":[-0.08560993144355322,0.9632481900264875,0.11832189689595962,0.6256002527553921,0.9396068225164762,-0.7977914347163955,-0.4941655089071628,0.5536834294976334,-0.6115868763592962,-0.7929001022899884,-0.3505922628886844],"value":0.9912105492642201},{"weights":[0.7353106956123958,-0.7475901420118278,0.7833404783910023,0.14081223872278725,-0.23085258510414963,0.09258853986384441,-0.8134861006791452,0.11208798212088533,-0.8651076473647357,0.6579495176383454,-0.6469691020760018],"value":0.984772592690815},{"weights":[-0.08638869415553341,0.8642620364012905,-0.7809897602060345,0.07161990059622392,-0.03498076882042245,-0.45507390104720846,0.4419089619387555,0.36224682913686834,0.25869481994052324,-0.40231245405466964,-0.9913244428976369],"value":0.9818188476448513},{"weights":[0.7793626025059095,-0.6983261664747951,-0.9094944458526313,-0.6168312765542701,0.9042946781335592,-0.9599619436345499,0.49801356449657197,-0.9311645753374052,0.7773619489224028,0.9206192778426385,-0.23762715630017217],"value":-0.9947946579597742},{"weights":[0.8428918119757052,0.21078611961913207,0.8344861527753444,0.9207650478379348,0.8146300234878425,0.09813489119476326,-0.677074598498506,0.48214008698652444,0.3952973247288969,-0.38257139906546556,-0.1993771531695483],"value":0.9950960945608284},{"weights":[-0.11536184672536898,-0.856430048932137,-0.2652341748192071,-0.9666940493654188,-0.9486161797685293,0.16674651906604376,-0.5573883844645735,-0.2900848470793935,-0.6239999957835325,-0.7207097324961942,0.054891963117240206],"value":-0.9959801034813044},{"weights":[0.12828807981929424,-0.22951067430264205,0.1385501355712382,0.11179291961942361,0.32365196069569224,0.00443617226519244,0.9602951585214803,0.8653251125703427,-0.9394595440542943,0.15574490518413953,0.7857996083544978],"value":0.9951334330115045},{"weights":[-0.3110875642593416,-0.6356347630770669,0.5720931884995832,-0.32468731523461614,-0.32015495718368614,-0.4811803669540091,-0.42940369584265126,-0.1277147785042798,0.08527652571505051,-0.6940441705350997,0.4714908763794208],"value":-0.9912272468931606},{"weights":[0.7357361962659854,-0.09860550476173069,0.7903664121126512,-0.26239996390459064,0.8022483270154992,-0.10791402034287634,-0.4956350735719637,-0.31162228180614227,-0.39822069780775093,0.5021240314173849,0.2705929725200318],"value":-0.9699080628154819},{"weights":[-0.7639821797394246,-0.97399216912354,-0.6212112483416745,0.5041448955301937,-0.7662549195198927,-0.874696778697241,0.05109370817285175,-0.20640159855531648,-0.4450198075811307,0.1784948597407463,0.9471822166099275],"value":-0.9853577459857346},{"weights":[0.9443303562958625,-0.22863450332602842,-0.5897308151462881,-0.23673481535958452,0.39207742281227054,0.2738109683320804,0.45726172220086525,0.8866381430667407,0.028061099748623697,-0.31206484614584085,0.5222304102566704],"value":0.993813233466363},{"weights":[-0.9236143649850974,0.29282961636053884,0.9765377792176531,0.1219286528620267,-0.6734773268138361,0.4299178284999541,-0.6888755027964542,0.9651969479118048,-0.3538774112923213,0.9430762096648646,0.9128743101458698],"value":0.9965296053071843},{"weights":[-0.16747918073217472,-0.6271672975792888,-0.729422234425869,0.9712376457581056,-0.6916539729417139,0.5058710834943798,-0.7449915939217018,0.11760483627454255,0.4310517539463854,0.29300966637793957,-0.2532696004738155],"value":0.988714916726614},{"weights":[-0.16362295941664806,0.9008085204661764,-0.568916157417847,0.9284165377840812,-0.32338366715466105,0.9108062580639258,-0.7913366027815445,0.9527888519978216,0.7211263766954619,0.9361707739781351,-0.6254802143985518],"value":0.9972179958859316},{"weights":[-0.6583796905344208,0.6213969697840978,-0.8637499909271962,0.9463851823021128,0.7909150248716181,-0.24883807057064766,0.8931256451581446,-0.7365480178873378,0.13447219400838062,-0.5486739787302701,0.25697112836982594],"value":-0.9920514897258921},{"weights":[-0.32475595240506827,0.8135400103943322,-0.5340522472687939,0.4769836501640743,-0.012857443700151183,0.6372184928309639,0.9357674941916612,-0.6191847110975508,0.24295529013397177,0.3458087480558931,0.16680494510948263],"value":-0.9813000290359627},{"weights":[0.8564502789908812,0.9306298642447035,0.19756639373052298,-0.27240700697152764,0.4836200415711529,0.9696233541268509,-0.9633871863324188,-0.18787440727141114,-0.975864082302639,0.07411645129397915,-0.9638661008428491],"value":-0.9794737123385276}],[{"weights":[0.16182377321203623,0.9170289984606623,-0.9676720146491835,-0.5463409914395756,-0.36706198825347425,0.6909541370277124,0.9325114471503153,0.4294485094346072,-0.8808233003158299,0.2227123130307862,-0.6562140586261704,0.29898192619170505,0.37099841723286975,0.748532972262232,0.8077367765977019,0.26687636461104836,-0.4186010219800589,-0.3386295466700009,-0.15719522053574098,-0.4127417910582558],"value":0.8233559156034009},{"weights":[0.5517344235756201,0.14382389175048527,-0.9298724270840486,0.25000673026567766,-0.9101684954729614,0.33261752307866077,0.289580349795977,0.2570318425046412,-0.15115060534467784,0.17732056505117555,0.8284099969847851,-0.7005567783629467,-0.48270331470188976,0.9950961128256175,0.8255418136342887,0.5586037202312677,-0.3015176138842328,0.028373507107915863,-0.2146106378579744,-0.4230504790354308],"value":0.8200154279631605},{"weights":[0.8004223808346045,-0.5101860602184161,0.4895709514827624,0.8205188299724724,-0.30927704296039016,0.45565415475684956,0.826501619018972,-0.7531654126932863,-0.48825628327127246,0.2394708997972459,-0.35558544345837717,0.4419678340521789,0.17976844117436475,-0.3903366610406178,0.5187683360881095,-0.1730358845388591,-0.6726101615011939,0.8196639202815779,-0.6554086384470681,0.9812512932436523],"value":-0.6843754468280001},{"weights":[-0.563966298193256,0.301915747066662,0.5503655291139342,-0.11665890945667412,0.18921880364080534,0.7699918855448238,0.7651835934047724,-0.003155353573527808,0.7767871590499182,0.013089445746977457,-0.5590736021354248,0.4135971192015466,-0.9946738368079218,-0.7452486560007969,0.250540137424041,0.23321869719209287,0.2815407754468251,0.5659768447600606,-0.09516021640742345,-0.13737539407882027],"value":-0.40206069889117374},{"weights":[0.9020218689067367,0.9268594791504094,-0.21903529192600413,-0.8823672287574085,-0.030545218909088234,-0.05370282174427299,0.11771667948792164,-0.18541059041628216,-0.9171545674908224,0.10118840465051893,0.6502848466256483,0.5611170754917447,0.12689602823247714,-0.16817826257636792,-0.26357142806555434,-0.05849484927406401,-0.20397942965648852,-0.23133862110152226,0.11282576058304539,-0.6179299680891224],"value":0.3338652581139149},{"weights":[-0.5229274001674056,-0.31913772707996246,-0.32264226999057044,0.8695478279569469,0.927429749894713,0.857226599250771,-0.031206035001105192,0.7589436626210642,0.9897838566287511,0.8514504315405729,0.057296891787346205,-0.4018919103285521,-0.9096570608255505,0.037108126683104814,-0.4919116961286796,0.504307751761059,-0.39432387425524995,-0.5163915893744448,0.22122405114719035,0.10136656212199702],"value":0.7923894941832923},{"weights":[0.24642814615243802,-0.9684967776005786,-0.565929729442677,-0.9276170183290904,-0.8564822258683753,0.669355346531805,-0.5742480889427966,-0.959108376024342,-0.18373600090977193,-0.13909864104590852,-0.9340190754910287,0.5172311407096464,0.7791164312393741,-0.8661393665934227,-0.25669487031461635,0.3589305616608258,0.2626100362130823,-0.3278552644022201,0.005036226650632969,0.6386265820592474],"value":-0.7340154958296898},{"weights":[-0.9826645076840497,-0.6152987752756949,